{"learner":{"attributes":{"best_iteration":"99","best_ntree_limit":"100","scikit_learn":"{\"n_estimators\": 100, \"objective\": \"reg:squarederror\", \"max_depth\": null, \"max_leaves\": null, \"max_bin\": null, \"grow_policy\": null, \"learning_rate\": null, \"verbosity\": null, \"booster\": null, \"tree_method\": null, \"gamma\": null, \"min_child_weight\": null, \"max_delta_step\": null, \"subsample\": null, \"sampling_method\": null, \"colsample_bytree\": null, \"colsample_bylevel\": null, \"colsample_bynode\": null, \"reg_alpha\": null, \"reg_lambda\": null, \"scale_pos_weight\": null, \"base_score\": null, \"missing\": NaN, \"num_parallel_tree\": null, \"random_state\": null, \"n_jobs\": null, \"monotone_constraints\": null, \"interaction_constraints\": null, \"importance_type\": null, \"gpu_id\": null, \"validate_parameters\": null, \"predictor\": null, \"enable_categorical\": false, \"feature_types\": null, \"max_cat_to_onehot\": null, \"max_cat_threshold\": null, \"eval_metric\": null, \"early_stopping_rounds\": null, \"callbacks\": null, \"_estimator_type\": \"regressor\"}"},"feature_names":["Open","High","Low","Volume","Dividends","Stock Splits"],"feature_types":["float","float","float","int","float","float"],"gradient_booster":{"model":{"gbtree_model_param":{"num_parallel_tree":"1","num_trees":"100","size_leaf_vector":"0"},"tree_info":[0,0,0,0,0,0,0,0,0,0,0,0,0,0,0,0,0,0,0,0,0,0,0,0,0,0,0,0,0,0,0,0,0,0,0,0,0,0,0,0,0,0,0,0,0,0,0,0,0,0,0,0,0,0,0,0,0,0,0,0,0,0,0,0,0,0,0,0,0,0,0,0,0,0,0,0,0,0,0,0,0,0,0,0,0,0,0,0,0,0,0,0,0,0,0,0,0,0,0,0],"trees":[{"base_weights":[4.6616554E0],"categories":[],"categories_nodes":[],"categories_segments":[],"categories_sizes":[],"default_left":[0],"id":0,"left_children":[-1],"loss_changes":[0E0],"parents":[2147483647],"right_children":[-1],"split_conditions":[1.3984966E0],"split_indices":[0],"split_type":[0],"sum_hessian":[6.7E1],"tree_param":{"num_deleted":"0","num_feature":"6","num_nodes":"1","size_leaf_vector":"0"}},{"base_weights":[3.2837248E0],"categories":[],"categories_nodes":[],"categories_segments":[],"categories_sizes":[],"default_left":[0],"id":1,"left_children":[-1],"loss_changes":[0E0],"parents":[2147483647],"right_children":[-1],"split_conditions":[9.851175E-1],"split_indices":[0],"split_type":[0],"sum_hessian":[6.7E1],"tree_param":{"num_deleted":"0","num_feature":"6","num_nodes":"1","size_leaf_vector":"0"}},{"base_weights":[2.3130944E0],"categories":[],"categories_nodes":[],"categories_segments":[],"categories_sizes":[],"default_left":[0],"id":2,"left_children":[-1],"loss_changes":[0E0],"parents":[2147483647],"right_children":[-1],"split_conditions":[6.9392836E-1],"split_indices":[0],"split_type":[0],"sum_hessian":[6.7E1],"tree_param":{"num_deleted":"0","num_feature":"6","num_nodes":"1","size_leaf_vector":"0"}},{"base_weights":[1.6293709E0],"categories":[],"categories_nodes":[],"categories_segments":[],"categories_sizes":[],"default_left":[0],"id":3,"left_children":[-1],"loss_changes":[0E0],"parents":[2147483647],"right_children":[-1],"split_conditions":[4.8881128E-1],"split_indices":[0],"split_type":[0],"sum_hessian":[6.7E1],"tree_param":{"num_deleted":"0","num_feature":"6","num_nodes":"1","size_leaf_vector":"0"}},{"base_weights":[1.1477479E0],"categories":[],"categories_nodes":[],"categories_segments":[],"categories_sizes":[],"default_left":[0],"id":4,"left_children":[-1],"loss_changes":[0E0],"parents":[2147483647],"right_children":[-1],"split_conditions":[3.4432438E-1],"split_indices":[0],"split_type":[0],"sum_hessian":[6.7E1],"tree_param":{"num_deleted":"0","num_feature":"6","num_nodes":"1","size_leaf_vector":"0"}},{"base_weights":[8.084869E-1],"categories":[],"categories_nodes":[],"categories_segments":[],"categories_sizes":[],"default_left":[0],"id":5,"left_children":[-1],"loss_changes":[0E0],"parents":[2147483647],"right_children":[-1],"split_conditions":[2.4254607E-1],"split_indices":[0],"split_type":[0],"sum_hessian":[6.7E1],"tree_param":{"num_deleted":"0","num_feature":"6","num_nodes":"1","size_leaf_vector":"0"}},{"base_weights":[5.695076E-1,4.7982275E-1,6.358991E-1],"categories":[],"categories_nodes":[],"categories_segments":[],"categories_sizes":[],"default_left":[1,0,0],"id":6,"left_children":[1,-1,-1],"loss_changes":[9.977341E-2,0E0,0E0],"parents":[2147483647,0,0],"right_children":[2,-1,-1],"split_conditions":[5.2113914E0,1.4394683E-1,1.9076975E-1],"split_indices":[0,0,0],"split_type":[0,0,0],"sum_hessian":[6.7E1,3.2E1,3.5E1],"tree_param":{"num_deleted":"0","num_feature":"6","num_nodes":"3","size_leaf_vector":"0"}},{"base_weights":[4.0357774E-1,2.8262994E-1,4.297007E-1],"categories":[],"categories_nodes":[],"categories_segments":[],"categories_sizes":[],"default_left":[1,0,0],"id":7,"left_children":[1,-1,-1],"loss_changes":[9.34E-2,0E0,0E0],"parents":[2147483647,0,0],"right_children":[2,-1,-1],"split_conditions":[5.1541E0,8.4788986E-2,1.2891021E-1],"split_indices":[0,0,0],"split_type":[0,0,0],"sum_hessian":[6.7E1,1.4E1,5.3E1],"tree_param":{"num_deleted":"0","num_feature":"6","num_nodes":"3","size_leaf_vector":"0"}},{"base_weights":[2.856472E-1,2.4072433E-1,3.532856E-1],"categories":[],"categories_nodes":[],"categories_segments":[],"categories_sizes":[],"default_left":[1,0,0],"id":8,"left_children":[1,-1,-1],"loss_changes":[1.215744E-1,0E0,0E0],"parents":[2147483647,0,0],"right_children":[2,-1,-1],"split_conditions":[5.2727003E0,7.22173E-2,1.05985686E-1],"split_indices":[0,0,0],"split_type":[0,0,0],"sum_hessian":[6.7E1,4.3E1,2.4E1],"tree_param":{"num_deleted":"0","num_feature":"6","num_nodes":"3","size_leaf_vector":"0"}},{"base_weights":[2.025736E-1,1.7594041E-1,2.721237E-1,9.5068656E-2,1.844222E-1],"categories":[],"categories_nodes":[],"categories_segments":[],"categories_sizes":[],"default_left":[1,1,0,0,0],"id":9,"left_children":[1,3,-1,-1,-1],"loss_changes":[7.808137E-2,1.8135905E-2,0E0,0E0,0E0],"parents":[2147483647,0,0,1,1],"right_children":[2,4,-1,-1,-1],"split_conditions":[5.2996545E0,5.09015E0,8.1637114E-2,2.8520597E-2,5.532666E-2],"split_indices":[0,0,0,0,0],"split_type":[0,0,0,0,0],"sum_hessian":[6.7E1,5.1E1,1.6E1,6E0,4.5E1],"tree_param":{"num_deleted":"0","num_feature":"6","num_nodes":"5","size_leaf_vector":"0"}},{"base_weights":[1.4423528E-1,1.2743267E-1,2.1202807E-1,8.052197E-2,1.3570045E-1],"categories":[],"categories_nodes":[],"categories_segments":[],"categories_sizes":[],"default_left":[1,1,0,0,0],"id":10,"left_children":[1,3,-1,-1,-1],"loss_changes":[5.043924E-2,1.118046E-2,0E0,0E0,0E0],"parents":[2147483647,0,0,1,1],"right_children":[2,4,-1,-1,-1],"split_conditions":[5.3355503E0,5.12665E0,6.360842E-2,2.4156593E-2,4.0710136E-2],"split_indices":[0,0,0,0,0],"split_type":[0,0,0,0,0],"sum_hessian":[6.7E1,5.6E1,1.1E1,1E1,4.6E1],"tree_param":{"num_deleted":"0","num_feature":"6","num_nodes":"5","size_leaf_vector":"0"}},{"base_weights":[1.0285412E-1,8.092919E-2,1.3128512E-1,3.622043E-2,8.350565E-2],"categories":[],"categories_nodes":[],"categories_segments":[],"categories_sizes":[],"default_left":[1,1,0,0,0],"id":11,"left_children":[1,3,-1,-1,-1],"loss_changes":[3.1762898E-2,1.6981959E-3,0E0,0E0,0E0],"parents":[2147483647,0,0,1,1],"right_children":[2,4,-1,-1,-1],"split_conditions":[5.24435E0,5.0674725E0,3.9385535E-2,1.086613E-2,2.5051696E-2],"split_indices":[0,0,0,0,0],"split_type":[0,0,0,0,0],"sum_hessian":[6.7E1,4E1,2.7E1,3E0,3.7E1],"tree_param":{"num_deleted":"0","num_feature":"6","num_nodes":"5","size_leaf_vector":"0"}},{"base_weights":[7.3105425E-2,6.286285E-2,1.204658E-1,4.349052E-2,6.9207296E-2],"categories":[],"categories_nodes":[],"categories_segments":[],"categories_sizes":[],"default_left":[1,1,0,0,0],"id":12,"left_children":[1,3,-1,-1,-1],"loss_changes":[2.5413483E-2,4.1187108E-3,0E0,0E0,0E0],"parents":[2147483647,0,0,1,1],"right_children":[2,4,-1,-1,-1],"split_conditions":[5.35375E0,5.20495E0,3.613974E-2,1.3047157E-2,2.076219E-2],"split_indices":[0,1,0,0,0],"split_type":[0,0,0,0,0],"sum_hessian":[6.7E1,5.7E1,1E1,1.6E1,4.1E1],"tree_param":{"num_deleted":"0","num_feature":"6","num_nodes":"5","size_leaf_vector":"0"}},{"base_weights":[5.220255E-2,4.5616727E-2,1.0307659E-1,3.113211E-2,4.997807E-2,9.21607E-3,3.1925857E-2],"categories":[],"categories_nodes":[],"categories_segments":[],"categories_sizes":[],"default_left":[1,1,0,1,0,0,0],"id":13,"left_children":[1,3,-1,5,-1,-1,-1],"loss_changes":[1.8081188E-2,2.3607612E-3,0E0,1.4975667E-6,0E0,0E0,0E0],"parents":[2147483647,0,0,1,1,3,3],"right_children":[2,4,-1,6,-1,-1,-1],"split_conditions":[5.373E0,5.129981E0,3.092298E-2,5.05135E0,1.4993422E-2,2.764821E-3,9.577758E-3],"split_indices":[0,2,0,0,0,0,0],"split_type":[0,0,0,0,0,0,0],"sum_hessian":[6.7E1,6.1E1,6E0,1.6E1,4.5E1,1E0,1.5E1],"tree_param":{"num_deleted":"0","num_feature":"6","num_nodes":"7","size_leaf_vector":"0"}},{"base_weights":[3.7398696E-2,3.2663953E-2,8.08804E-2,1.4974526E-2,3.4263283E-2,2.9727349E-2,3.9676085E-2,3.207694E-2,1.9375537E-2,5.759001E-3,2.0357728E-2],"categories":[],"categories_nodes":[],"categories_segments":[],"categories_sizes":[],"default_left":[1,1,0,0,1,1,0,0,1,0,0],"id":14,"left_children":[1,3,-1,-1,5,7,-1,-1,9,-1,-1],"loss_changes":[1.1357613E-2,1.2692809E-3,0E0,0E0,2.200082E-4,2.2978336E-4,0E0,0E0,3.1264499E-6,0E0,0E0],"parents":[2147483647,0,0,1,1,4,4,5,5,8,8],"right_children":[2,4,-1,-1,6,8,-1,-1,10,-1,-1],"split_conditions":[5.39015E0,5.0682497E0,2.4264121E-2,4.492358E-3,5.24435E0,5.2113914E0,1.1902826E-2,9.623082E-3,5.2154913E0,1.7277003E-3,6.1073187E-3],"split_indices":[0,2,0,0,0,0,0,0,0,0,0],"split_type":[0,0,0,0,0,0,0,0,0,0,0],"sum_hessian":[6.7E1,6.2E1,5E0,6E0,5.6E1,3.4E1,2.2E1,2.6E1,8E0,1E0,7E0],"tree_param":{"num_deleted":"0","num_feature":"6","num_nodes":"11","size_leaf_vector":"0"}},{"base_weights":[2.7033763E-2,2.3402145E-2,6.0660124E-2,1.6269332E-2,2.6832696E-2,1.8327968E-2,1.1030568E-2,1.4409828E-2,2.7786255E-2,1.2739372E-2,2.4587631E-2,5.220175E-3,1.3065736E-2,2.067852E-2,-5.33247E-3],"categories":[],"categories_nodes":[],"categories_segments":[],"categories_sizes":[],"default_left":[1,1,0,1,1,1,1,1,0,0,0,0,0,0,0],"id":15,"left_children":[1,3,-1,5,7,9,11,13,-1,-1,-1,-1,-1,-1,-1],"loss_changes":[6.884452E-3,1.1050291E-3,0E0,4.588021E-5,8.528866E-5,2.1150988E-4,3.822078E-5,7.2905945E-4,0E0,0E0,0E0,0E0,0E0,0E0,0E0],"parents":[2147483647,0,0,1,1,3,3,4,4,5,5,6,6,7,7],"right_children":[2,4,-1,6,8,10,12,14,-1,-1,-1,-1,-1,-1,-1],"split_conditions":[5.39015E0,5.1884003E0,1.8198038E-2,5.1541E0,5.1527166E0,5.1113E0,5.16495E0,5.1467133E0,8.335877E-3,3.8218119E-3,7.3762895E-3,1.5660526E-3,3.919721E-3,6.2035564E-3,-1.599741E-3],"split_indices":[0,0,0,0,2,0,0,2,0,0,0,0,0,0,0],"split_type":[0,0,0,0,0,0,0,0,0,0,0,0,0,0,0],"sum_hessian":[6.7E1,6.2E1,5E0,2.2E1,4E1,1.4E1,8E0,4E0,3.6E1,9E0,5E0,3E0,5E0,3E0,1E0],"tree_param":{"num_deleted":"0","num_feature":"6","num_nodes":"15","size_leaf_vector":"0"}},{"base_weights":[1.9626807E-2,1.699385E-2,4.9403287E-2,1.19093545E-2,1.9200014E-2,1.3576126E-2,7.2954893E-3,4.3199062E-3,1.9451449E-2,9.299708E-3,1.8440804E-2,2.420187E-3,9.795189E-3],"categories":[],"categories_nodes":[],"categories_segments":[],"categories_sizes":[],"default_left":[1,1,0,1,1,1,0,0,0,1,0,0,0],"id":16,"left_children":[1,3,-1,5,7,9,-1,-1,-1,11,-1,-1,-1],"loss_changes":[4.4916607E-3,4.892424E-4,0E0,7.014116E-5,7.6850876E-5,1.4055683E-4,8.3859777E-7,0E0,0E0,1.0380521E-5,0E0,0E0,0E0],"parents":[2147483647,0,0,1,1,3,3,4,4,5,5,9,9],"right_children":[2,4,-1,6,8,10,-1,-1,-1,12,-1,-1,-1],"split_conditions":[5.4037504E0,5.18445E0,1.4820986E-2,5.1541E0,5.132189E0,5.1113E0,2.188647E-3,1.2959719E-3,5.835435E-3,5.07065E0,5.5322414E-3,7.260561E-4,2.9385567E-3],"split_indices":[0,0,0,0,2,0,0,0,0,1,0,0,0],"split_type":[0,0,0,0,0,0,0,0,0,0,0,0,0],"sum_hessian":[6.7E1,6.3E1,4E0,2.1E1,4.2E1,1.4E1,7E0,1E0,4.1E1,9E0,5E0,1E0,8E0],"tree_param":{"num_deleted":"0","num_feature":"6","num_nodes":"13","size_leaf_vector":"0"}},{"base_weights":[1.4228933E-2,1.2314899E-2,4.177475E-2,1.0743733E-2,1.8358907E-2,1.2327117E-2,8.250873E-3,8.937711E-3,1.9619253E-2,1.572238E-3,1.14919245E-2,2.8429031E-3,9.382793E-3,8.660793E-3,-1.6903196E-3,1.3411403E-2,4.586792E-3,1.1016589E-2,5.980333E-3,1.518178E-2,-2.19059E-3,-5.8470964E-3,2.8890371E-3,6.7355633E-3,1.4888287E-2,5.2952766E-4,5.468726E-3],"categories":[],"categories_nodes":[],"categories_segments":[],"categories_sizes":[],"default_left":[1,1,0,1,0,1,1,1,0,1,1,0,1,1,1,1,1,0,0,0,0,0,0,0,0,0,0],"id":17,"left_children":[1,3,-1,5,-1,7,9,11,-1,13,15,-1,17,19,21,23,25,-1,-1,-1,-1,-1,-1,-1,-1,-1,-1],"loss_changes":[3.0707559E-3,4.20006E-4,0E0,1.1143647E-4,0E0,5.90845E-4,5.014314E-4,3.57175E-5,0E0,2.227809E-4,1.5055272E-4,0E0,5.085452E-5,2.4554224E-4,1.5014001E-4,1.8032268E-5,1.4995356E-5,0E0,0E0,0E0,0E0,0E0,0E0,0E0,0E0,0E0,0E0],"parents":[2147483647,0,0,1,1,3,3,5,5,6,6,7,7,9,9,10,10,12,12,13,13,14,14,15,15,16,16],"right_children":[2,4,-1,6,-1,8,10,12,-1,14,16,-1,18,20,22,24,26,-1,-1,-1,-1,-1,-1,-1,-1,-1,-1],"split_conditions":[5.4153004E0,5.3152E0,1.2532425E-2,5.2077E0,5.507672E-3,5.1884003E0,5.2292004E0,5.0581226E0,5.885776E-3,5.24645E0,5.2628956E0,8.52871E-4,5.1541E0,5.2113914E0,5.2718496E0,5.2808447E0,5.2809E0,3.3049767E-3,1.7940999E-3,4.5545343E-3,-6.57177E-4,-1.754129E-3,8.667112E-4,2.0206692E-3,4.466486E-3,1.5885831E-4,1.640618E-3],"split_indices":[0,0,0,0,0,0,0,0,0,1,2,0,0,0,1,1,0,0,0,0,0,0,0,0,0,0,0],"split_type":[0,0,0,0,0,0,0,0,0,0,0,0,0,0,0,0,0,0,0,0,0,0,0,0,0,0,0],"sum_hessian":[6.7E1,6.4E1,3E0,5.3E1,1.1E1,3E1,2.3E1,2.2E1,8E0,8E0,1.5E1,2E0,2E1,2E0,6E0,1.1E1,4E0,1.2E1,8E0,1E0,1E0,3E0,3E0,3E0,8E0,1E0,3E0],"tree_param":{"num_deleted":"0","num_feature":"6","num_nodes":"27","size_leaf_vector":"0"}},{"base_weights":[1.0565765E-2,9.061072E-3,3.2375574E-2,7.997929E-3,1.3553056E-2,3.5129956E-3,8.475411E-3,1.0189781E-2,6.4220238E-3,7.4481433E-3,1.50847435E-2,-2.598405E-3,7.7701914E-3,9.531975E-3,4.8278808E-3,-5.6234994E-3,3.2384396E-3,1.4190435E-2,6.009604E-3],"categories":[],"categories_nodes":[],"categories_segments":[],"categories_sizes":[],"default_left":[1,1,0,1,0,0,1,1,1,1,0,1,1,0,0,0,0,0,0],"id":18,"left_children":[1,3,-1,5,-1,-1,7,9,11,13,-1,15,17,-1,-1,-1,-1,-1,-1],"loss_changes":[1.9382015E-3,2.0201877E-4,0E0,8.8006724E-5,0E0,0E0,1.070539E-4,2.231521E-4,3.2421644E-4,5.2264193E-5,0E0,8.883939E-5,1.63396E-4,0E0,0E0,0E0,0E0,0E0,0E0],"parents":[2147483647,0,0,1,1,3,3,6,6,7,7,8,8,9,9,11,11,12,12],"right_children":[2,4,-1,6,-1,-1,8,10,12,14,-1,16,18,-1,-1,-1,-1,-1,-1],"split_conditions":[5.4153004E0,5.3193E0,9.712673E-3,5.0682497E0,4.065917E-3,1.0538987E-3,5.2077E0,5.1949E0,5.161558E0,5.1541E0,4.525423E-3,5.2154913E0,5.1926603E0,2.8595924E-3,1.4483642E-3,-1.6870499E-3,9.715319E-4,4.257131E-3,1.8028812E-3],"split_indices":[0,0,0,2,0,0,0,0,2,0,0,0,2,0,0,0,0,0,0],"split_type":[0,0,0,0,0,0,0,0,0,0,0,0,0,0,0,0,0,0,0],"sum_hessian":[6.7E1,6.4E1,3E0,5.4E1,1E1,6E0,4.8E1,2.4E1,2.4E1,1.7E1,7E0,3E0,2.1E1,8E0,9E0,2E0,1E0,3E0,1.8E1],"tree_param":{"num_deleted":"0","num_feature":"6","num_nodes":"19","size_leaf_vector":"0"}},{"base_weights":[7.822696E-3,6.720716E-3,2.9458681E-2,5.8206893E-3,9.942312E-3,2.9018403E-3,6.339974E-3,8.076937E-3,4.3273596E-3,8.536664E-3,-1.0185242E-3,-5.0110817E-3,5.9786798E-3,6.200678E-3,1.37325125E-2,7.056904E-3,2.2866726E-3],"categories":[],"categories_nodes":[],"categories_segments":[],"categories_sizes":[],"default_left":[1,1,0,1,0,0,1,1,1,1,0,0,1,0,0,0,0],"id":19,"left_children":[1,3,-1,5,-1,-1,7,9,11,13,-1,-1,15,-1,-1,-1,-1],"loss_changes":[1.4233007E-3,1.3349741E-4,0E0,6.345089E-5,0E0,0E0,1.2236112E-4,1.04867504E-4,3.8463704E-4,1.8187251E-4,0E0,0E0,6.347941E-5,0E0,0E0,0E0,0E0],"parents":[2147483647,0,0,1,1,3,3,6,6,7,7,8,8,9,9,12,12],"right_children":[2,4,-1,6,-1,-1,8,10,12,14,-1,-1,16,-1,-1,-1,-1],"split_conditions":[5.4261E0,5.3152E0,8.837605E-3,5.1113E0,2.9826937E-3,8.705521E-4,5.250985E0,5.2113914E0,5.267128E0,5.19915E0,-3.0555727E-4,-1.5033246E-3,5.255843E0,1.8602036E-3,4.119754E-3,2.1170713E-3,6.860018E-4],"split_indices":[0,0,0,0,0,0,1,0,1,0,0,0,2,0,0,0,0],"split_type":[0,0,0,0,0,0,0,0,0,0,0,0,0,0,0,0,0],"sum_hessian":[6.7E1,6.5E1,2E0,5.3E1,1.2E1,9E0,4.4E1,2.2E1,2.2E1,2.1E1,1E0,3E0,1.9E1,1.6E1,5E0,1.4E1,5E0],"tree_param":{"num_deleted":"0","num_feature":"6","num_nodes":"17","size_leaf_vector":"0"}},{"base_weights":[5.7650525E-3,4.962288E-3,2.9775143E-2,4.179098E-3,7.6287133E-3,4.772109E-3,2.7279588E-3,3.3269112E-3,7.505695E-3,-2.1879196E-3,4.2887754E-3,4.1216766E-3,-2.0747185E-3,-1.4879704E-3,8.458571E-3,5.551868E-3,1.679341E-3,2.9378997E-3,6.9860616E-3,-3.8957596E-3,1.6942024E-3,8.842612E-3,2.309084E-3,3.0769508E-3,7.876277E-3,-7.944107E-4,2.3329735E-3],"categories":[],"categories_nodes":[],"categories_segments":[],"categories_sizes":[],"default_left":[1,1,0,1,0,1,1,1,1,0,1,1,1,0,1,1,1,0,0,0,0,0,0,0,0,0,0],"id":20,"left_children":[1,3,-1,5,-1,7,9,11,13,-1,15,17,19,-1,21,23,25,-1,-1,-1,-1,-1,-1,-1,-1,-1,-1],"loss_changes":[1.1629099E-3,1.08036096E-4,0E0,3.3451128E-5,0E0,1.2120034E-4,1.4749363E-4,1.20170094E-4,1.1542428E-4,0E0,3.6819925E-5,5.7463883E-5,3.4053646E-5,0E0,5.5598794E-6,2.7539558E-5,1.1554886E-5,0E0,0E0,0E0,0E0,0E0,0E0,0E0,0E0,0E0,0E0],"parents":[2147483647,0,0,1,1,3,3,5,5,6,6,7,7,8,8,10,10,11,11,12,12,14,14,15,15,16,16],"right_children":[2,4,-1,6,-1,8,10,12,14,-1,16,18,20,-1,22,24,26,-1,-1,-1,-1,-1,-1,-1,-1,-1,-1],"split_conditions":[5.4543E0,5.3598795E0,8.932543E-3,5.194932E0,2.2886142E-3,5.16285E0,5.2292004E0,5.2075E0,5.1772947E0,-6.563759E-4,5.255843E0,5.2058496E0,5.2154913E0,-4.4639112E-4,5.2792E0,5.236582E0,5.2809E0,8.813699E-4,2.0958185E-3,-1.1687279E-3,5.0826074E-4,2.6527836E-3,6.927252E-4,9.2308526E-4,2.3628832E-3,-2.3832322E-4,6.9989206E-4],"split_indices":[0,1,0,2,0,2,0,0,0,0,2,1,0,0,0,2,0,0,0,0,0,0,0,0,0,0,0],"split_type":[0,0,0,0,0,0,0,0,0,0,0,0,0,0,0,0,0,0,0,0,0,0,0,0,0,0,0],"sum_hessian":[6.7E1,6.6E1,1E0,5.3E1,1.3E1,3.6E1,1.7E1,2.5E1,1.1E1,4E0,1.3E1,2.2E1,3E0,1E0,1E1,8E0,5E0,1.7E1,5E0,2E0,1E0,9E0,1E0,5E0,3E0,1E0,4E0],"tree_param":{"num_deleted":"0","num_feature":"6","num_nodes":"27","size_leaf_vector":"0"}},{"base_weights":[4.3227533E-3,3.6317839E-3,2.5308847E-2,3.108075E-3,6.0153874E-3,1.3979132E-3,3.4421962E-3,3.7908554E-4,1.7325878E-3,8.581479E-3,3.023084E-3,-1.292324E-3,3.4756195E-3,-2.0836592E-3,9.365082E-4,5.1199277E-3,2.4333883E-3],"categories":[],"categories_nodes":[],"categories_segments":[],"categories_sizes":[],"default_left":[1,1,0,1,0,1,1,0,0,0,1,1,1,0,0,0,0],"id":21,"left_children":[1,3,-1,5,-1,7,9,-1,-1,-1,11,13,15,-1,-1,-1,-1],"loss_changes":[8.941344E-4,6.494083E-5,0E0,2.775807E-5,0E0,3.0939336E-6,7.5292424E-5,0E0,0E0,0E0,9.237105E-5,1.0770131E-5,5.7804922E-5,0E0,0E0,0E0,0E0],"parents":[2147483647,0,0,1,1,3,3,5,5,6,6,10,10,11,11,12,12],"right_children":[2,4,-1,6,-1,8,10,-1,-1,-1,12,14,16,-1,-1,-1,-1],"split_conditions":[5.4543E0,5.3355503E0,7.5926543E-3,5.12665E0,1.8046163E-3,5.051158E0,5.16435E0,1.1372567E-4,5.1977637E-4,2.5744438E-3,5.20495E0,5.16495E0,5.2487354E0,-6.250978E-4,2.8095246E-4,1.5359784E-3,7.300165E-4],"split_indices":[0,0,0,0,0,2,1,0,0,0,1,0,1,0,0,0,0],"split_type":[0,0,0,0,0,0,0,0,0,0,0,0,0,0,0,0,0],"sum_hessian":[6.7E1,6.6E1,1E0,5.6E1,1E1,1E1,4.6E1,3E0,7E0,2E0,4.4E1,4E0,4E1,3E0,1E0,1.4E1,2.6E1],"tree_param":{"num_deleted":"0","num_feature":"6","num_nodes":"17","size_leaf_vector":"0"}},{"base_weights":[3.2395334E-3,2.6457203E-3,2.1512508E-2,1.8145854E-3,3.6722217E-3,2.647385E-3,-1.7434359E-3,5.8604083E-3,2.9721658E-3,1.764792E-3,6.1778226E-3,2.3264885E-3,-2.657209E-3,2.6528835E-3,8.183639E-3,-1.938502E-3,3.5067038E-3,2.5526683E-3,7.1995077E-4,7.833099E-3,-1.0492802E-3,1.0750294E-3,-3.4584205E-3,2.6507676E-3,4.962172E-3,1.0360804E-3,5.3786277E-3,-1.4887651E-3,2.2864938E-3,3.921032E-3,1.4965057E-3],"categories":[],"categories_nodes":[],"categories_segments":[],"categories_sizes":[],"default_left":[1,1,0,1,1,1,1,1,1,1,1,0,1,0,0,0,1,1,1,0,0,0,0,1,0,0,0,0,0,0,0],"id":22,"left_children":[1,3,-1,5,7,9,11,13,15,17,19,-1,21,-1,-1,-1,23,25,27,-1,-1,-1,-1,29,-1,-1,-1,-1,-1,-1,-1],"loss_changes":[6.8093376E-4,5.049823E-5,0E0,1.2017718E-4,2.7005619E-5,8.88075E-5,3.593387E-5,2.300067E-5,6.979628E-5,2.0388754E-5,7.999624E-5,0E0,2.4650082E-5,0E0,0E0,0E0,1.4253776E-5,5.871454E-5,4.838468E-5,0E0,0E0,0E0,0E0,1.7591636E-5,0E0,0E0,0E0,0E0,0E0,0E0,0E0],"parents":[2147483647,0,0,1,1,3,3,4,4,5,5,6,6,7,7,8,8,9,9,10,10,12,12,16,16,17,17,18,18,23,23],"right_children":[2,4,-1,6,8,10,12,14,16,18,20,-1,22,-1,-1,-1,24,26,28,-1,-1,-1,-1,30,-1,-1,-1,-1,-1,-1,-1],"split_conditions":[5.4543E0,5.2292004E0,6.453753E-3,5.250985E0,5.2727003E0,5.20195E0,5.2043E0,5.26025E0,5.2823E0,5.1541E0,5.2113914E0,6.979466E-4,5.137038E0,7.958651E-4,2.4550916E-3,-5.815506E-4,5.3624153E0,5.12665E0,5.1772947E0,2.34993E-3,-3.1478406E-4,3.2250883E-4,-1.0375262E-3,5.255843E0,1.4886516E-3,3.1082414E-4,1.6135884E-3,-4.4662956E-4,6.859482E-4,1.1763097E-3,4.4895173E-4],"split_indices":[0,0,0,1,0,0,0,0,0,0,0,0,2,0,0,0,0,0,0,0,0,0,0,2,0,0,0,0,0,0,0],"split_type":[0,0,0,0,0,0,0,0,0,0,0,0,0,0,0,0,0,0,0,0,0,0,0,0,0,0,0,0,0,0,0],"sum_hessian":[6.7E1,6.6E1,1E0,3.8E1,2.8E1,3.1E1,7E0,5E0,2.3E1,2.6E1,5E0,1E0,6E0,3E0,2E0,2E0,2.1E1,1.4E1,1.2E1,4E0,1E0,1E0,5E0,1.5E1,6E0,1E1,4E0,5E0,7E0,6E0,9E0],"tree_param":{"num_deleted":"0","num_feature":"6","num_nodes":"31","size_leaf_vector":"0"}},{"base_weights":[2.509075E-3,2.0006876E-3,1.8285513E-2,1.3774114E-3,2.7698977E-3,1.984343E-3,-1.2224913E-3,4.644076E-3,2.1859407E-3,1.3154348E-3,4.663706E-3,-3.0323267E-3,4.6987535E-4,2.0560026E-3,6.5468154E-3,-1.5506744E-3,2.5961183E-3,1.9782272E-3,5.5868283E-4,5.9532165E-3,-8.919239E-4,-4.2397976E-3,-1.2165705E-3,1.9275347E-3,-1.1444092E-3,1.4179548E-3,3.168072E-3,7.534461E-4,4.851818E-3,-8.096014E-4,1.6860962E-3,1.8391609E-3,-9.7584724E-4,3.8837024E-3,2.1458864E-3],"categories":[],"categories_nodes":[],"categories_segments":[],"categories_sizes":[],"default_left":[1,1,0,1,1,1,1,1,1,1,1,1,1,0,0,0,1,1,1,0,0,0,0,0,0,1,1,0,0,0,0,0,0,0,0],"id":23,"left_children":[1,3,-1,5,7,9,11,13,15,17,19,21,23,-1,-1,-1,25,27,29,-1,-1,-1,-1,-1,-1,31,33,-1,-1,-1,-1,-1,-1,-1,-1],"loss_changes":[5.0881325E-4,2.8306531E-5,0E0,6.39664E-5,2.1587082E-5,5.121714E-5,2.5928057E-5,1.6086298E-5,4.080995E-5,1.2437173E-5,4.829408E-5,3.61188E-6,1.3971274E-5,0E0,0E0,0E0,1.0332631E-5,4.561769E-5,2.2961773E-5,0E0,0E0,0E0,0E0,0E0,0E0,1.0869298E-5,1.9071158E-6,0E0,0E0,0E0,0E0,0E0,0E0,0E0,0E0],"parents":[2147483647,0,0,1,1,3,3,4,4,5,5,6,6,7,7,8,8,9,9,10,10,11,11,12,12,16,16,17,17,18,18,25,25,26,26],"right_children":[2,4,-1,6,8,10,12,14,16,18,20,22,24,-1,-1,-1,26,28,30,-1,-1,-1,-1,-1,-1,32,34,-1,-1,-1,-1,-1,-1,-1,-1],"split_conditions":[5.4543E0,5.2292004E0,5.485654E-3,5.250985E0,5.2727003E0,5.20195E0,5.26895E0,5.26025E0,5.2823E0,5.17605E0,5.2113914E0,5.2135496E0,5.2209E0,6.168008E-4,1.9640448E-3,-4.6520235E-4,5.3598795E0,5.12665E0,5.1772947E0,1.785965E-3,-2.6757718E-4,-1.2719394E-3,-3.6497117E-4,5.7826046E-4,-3.4332275E-4,5.2963724E0,5.38535E0,2.2603384E-4,1.4555454E-3,-2.4288043E-4,5.058289E-4,5.517483E-4,-2.9275418E-4,1.1651107E-3,6.4376596E-4],"split_indices":[0,0,0,1,0,0,1,0,0,1,0,0,0,0,0,0,1,0,0,0,0,0,0,0,0,2,1,0,0,0,0,0,0,0,0],"split_type":[0,0,0,0,0,0,0,0,0,0,0,0,0,0,0,0,0,0,0,0,0,0,0,0,0,0,0,0,0,0,0,0,0,0,0],"sum_hessian":[6.7E1,6.6E1,1E0,3.8E1,2.8E1,3.1E1,7E0,5E0,2.3E1,2.6E1,5E0,3E0,4E0,3E0,2E0,2E0,2.1E1,1.3E1,1.3E1,4E0,1E0,1E0,2E0,2E0,2E0,8E0,1.3E1,1E1,3E0,6E0,7E0,7E0,1E0,6E0,7E0],"tree_param":{"num_deleted":"0","num_feature":"6","num_nodes":"35","size_leaf_vector":"0"}},{"base_weights":[1.9288483E-3,1.4936746E-3,1.5542746E-2,1.0169836E-3,2.083236E-3,1.497224E-3,-1.0311007E-3,3.680865E-3,1.597027E-3,1.0361841E-3,3.779602E-3,-2.5320053E-3,3.7584305E-4,1.5932322E-3,5.2374206E-3,-1.2404124E-3,1.9113584E-3,1.6026815E-3,3.5520963E-4,5.103588E-3,-7.581711E-4,-3.6039352E-3,-9.733836E-4,1.5419325E-3,-9.1552734E-4,1.3219714E-3,2.9854774E-3,7.531826E-4,4.749616E-3,-1.1971792E-3,1.3506678E-3,2.2646359E-3,5.2990916E-4,3.2602947E-3,6.682873E-4],"categories":[],"categories_nodes":[],"categories_segments":[],"categories_sizes":[],"default_left":[1,1,0,1,1,1,1,1,1,1,1,1,1,0,0,0,1,1,1,0,0,0,0,0,0,1,1,0,0,0,0,0,0,0,0],"id":24,"left_children":[1,3,-1,5,7,9,11,13,15,17,19,21,23,-1,-1,-1,25,27,29,-1,-1,-1,-1,-1,-1,31,33,-1,-1,-1,-1,-1,-1,-1,-1],"loss_changes":[3.7964413E-4,1.6710968E-5,0E0,3.9903123E-5,1.664822E-5,2.9756186E-5,1.7845145E-5,1.1152675E-5,2.3776389E-5,1.0232279E-5,3.3909135E-5,3.1749223E-6,8.940948E-6,0E0,0E0,0E0,9.98086E-6,3.652243E-5,2.3251723E-5,0E0,0E0,0E0,0E0,0E0,0E0,1.0746335E-5,2.2788154E-6,0E0,0E0,0E0,0E0,0E0,0E0,0E0,0E0],"parents":[2147483647,0,0,1,1,3,3,4,4,5,5,6,6,7,7,8,8,9,9,10,10,11,11,12,12,16,16,17,17,18,18,25,25,26,26],"right_children":[2,4,-1,6,8,10,12,14,16,18,20,22,24,-1,-1,-1,26,28,30,-1,-1,-1,-1,-1,-1,32,34,-1,-1,-1,-1,-1,-1,-1,-1],"split_conditions":[5.4543E0,5.2292004E0,4.662824E-3,5.250985E0,5.2727003E0,5.2049503E0,5.26895E0,5.26025E0,5.2823E0,5.1541E0,5.2113914E0,5.2135496E0,5.2209E0,4.7796968E-4,1.5712263E-3,-3.7212373E-4,5.3624153E0,5.14585E0,5.1772947E0,1.5310765E-3,-2.2745134E-4,-1.0811806E-3,-2.920151E-4,4.6257974E-4,-2.746582E-4,5.255843E0,5.4753385E0,2.2595479E-4,1.4248849E-3,-3.5915378E-4,4.0520035E-4,6.793908E-4,1.5897275E-4,9.780885E-4,2.0048619E-4],"split_indices":[0,0,0,1,0,0,1,0,0,0,0,0,0,0,0,0,0,0,0,0,0,0,0,0,0,2,1,0,0,0,0,0,0,0,0],"split_type":[0,0,0,0,0,0,0,0,0,0,0,0,0,0,0,0,0,0,0,0,0,0,0,0,0,0,0,0,0,0,0,0,0,0,0],"sum_hessian":[6.7E1,6.6E1,1E0,3.8E1,2.8E1,3.1E1,7E0,5E0,2.3E1,2.7E1,4E0,3E0,4E0,3E0,2E0,2E0,2.1E1,1.4E1,1.3E1,3E0,1E0,1E0,2E0,2E0,2E0,1.5E1,6E0,1.2E1,2E0,5E0,8E0,6E0,9E0,5E0,1E0],"tree_param":{"num_deleted":"0","num_feature":"6","num_nodes":"35","size_leaf_vector":"0"}},{"base_weights":[1.4997721E-3,1.127791E-3,1.321125E-2,8.2774874E-4,1.74561E-3,1.0514021E-3,-3.939867E-4,4.3787956E-3,1.2379696E-3,6.671835E-4,1.7172949E-3,-1.136303E-3,6.324053E-4,4.41898E-4,2.073394E-3,1.0267893E-3,-1.6572475E-3,-1.5084743E-3,2.0814675E-3,8.608103E-4,-5.0640106E-4,3.4249912E-4,1.4911039E-3,-3.0634403E-3,-1.6736984E-4,3.061199E-3,1.3058981E-3,-3.3068657E-4,1.078265E-3],"categories":[],"categories_nodes":[],"categories_segments":[],"categories_sizes":[],"default_left":[1,1,0,1,1,1,1,0,1,1,1,0,0,1,0,1,1,0,1,1,0,0,0,0,0,0,0,0,0],"id":25,"left_children":[1,3,-1,5,7,9,11,-1,13,15,17,-1,-1,19,-1,21,23,-1,25,27,-1,-1,-1,-1,-1,-1,-1,-1,-1],"loss_changes":[2.8133893E-4,1.0974989E-5,0E0,1.3256766E-5,2.2650114E-5,9.088188E-6,6.8138634E-6,0E0,1.1719865E-5,2.4270379E-5,1.958615E-5,0E0,0E0,4.805711E-6,3.4231562E-7,7.1147206E-6,7.867493E-6,0E0,5.880436E-6,2.4293413E-6,6.4066205E-7,0E0,0E0,0E0,0E0,0E0,0E0,0E0,0E0],"parents":[2147483647,0,0,1,1,3,3,4,4,5,5,6,6,8,8,9,9,10,10,13,13,15,15,16,16,18,18,19,19],"right_children":[2,4,-1,6,8,10,12,-1,14,16,18,-1,-1,20,-1,22,24,-1,26,28,-1,-1,-1,-1,-1,-1,-1,-1,-1],"split_conditions":[5.4543E0,5.2413135E0,3.9633755E-3,5.2122E0,5.247207E0,5.16365E0,5.223065E0,1.3136388E-3,5.358E0,5.2075E0,5.1783E0,-3.408909E-4,1.897216E-4,5.28935E0,6.220182E-4,5.12665E0,5.2112913E0,-4.5254233E-4,5.173985E0,5.2809E0,-1.5192032E-4,1.0274974E-4,4.473312E-4,-9.1903214E-4,-5.0210954E-5,9.183598E-4,3.9176943E-4,-9.920597E-5,3.2347953E-4],"split_indices":[0,2,0,2,2,2,2,0,0,0,0,0,0,2,0,0,0,0,2,0,0,0,0,0,0,0,0,0,0],"split_type":[0,0,0,0,0,0,0,0,0,0,0,0,0,0,0,0,0,0,0,0,0,0,0,0,0,0,0,0,0],"sum_hessian":[6.7E1,6.6E1,1E0,4.6E1,2E1,3.9E1,7E0,2E0,1.8E1,2.6E1,1.3E1,4E0,3E0,1E1,8E0,2.3E1,3E0,1E0,1.2E1,7E0,3E0,1E1,1.3E1,1E0,2E0,4E0,8E0,1E0,6E0],"tree_param":{"num_deleted":"0","num_feature":"6","num_nodes":"29","size_leaf_vector":"0"}},{"base_weights":[1.1419408E-3,8.237753E-4,1.1229515E-2,5.1255105E-4,1.2139123E-3,8.2087517E-4,-7.8481436E-4,2.4716854E-3,8.4888935E-4,4.989249E-4,2.4596215E-3,-2.2560756E-3,8.161863E-5,9.914637E-4,3.6214192E-3,3.6144258E-5,1.3341268E-3,1.0442734E-3,-1.2101446E-4,3.3842325E-3,-6.1941147E-4,9.441376E-4,-5.8567524E-4,4.4420786E-4,-6.8700314E-4,2.110839E-3,9.640455E-4,3.9687523E-4,3.5015743E-3,-1.049178E-3,7.0625544E-4,-9.875298E-4,8.474191E-4,3.6566597E-4,1.5014807E-3],"categories":[],"categories_nodes":[],"categories_segments":[],"categories_sizes":[],"default_left":[1,1,0,1,1,1,1,1,1,1,1,0,1,0,0,1,1,1,1,0,0,0,0,1,0,0,1,0,0,0,0,0,0,0,0],"id":26,"left_children":[1,3,-1,5,7,9,11,13,15,17,19,-1,21,-1,-1,23,25,27,29,-1,-1,-1,-1,31,-1,-1,33,-1,-1,-1,-1,-1,-1,-1,-1],"loss_changes":[2.0899664E-4,7.5129574E-6,0E0,1.6244589E-5,1.121618E-5,1.5655865E-5,1.0382132E-5,6.6206594E-6,9.416764E-6,9.592697E-6,1.633077E-5,0E0,4.0062796E-6,0E0,0E0,3.2560736E-6,2.2767545E-6,2.247309E-5,1.1490772E-5,2.220113E-7,0E0,0E0,0E0,4.8779E-6,0E0,0E0,3.3100423E-6,0E0,0E0,0E0,0E0,0E0,0E0,0E0,0E0],"parents":[2147483647,0,0,1,1,3,3,4,4,5,5,6,6,7,7,8,8,9,9,10,10,12,12,15,15,16,16,17,17,18,18,23,23,26,26],"right_children":[2,4,-1,6,8,10,12,14,16,18,20,-1,22,-1,-1,24,26,28,30,-1,-1,-1,-1,32,-1,-1,34,-1,-1,-1,-1,-1,-1,-1,-1],"split_conditions":[5.4543E0,5.2292004E0,3.3688548E-3,5.250985E0,5.2727003E0,5.2049503E0,5.25975E0,5.26025E0,5.3513002E0,5.1541E0,5.2113914E0,-6.7682273E-4,5.21775E0,2.974391E-4,1.0864259E-3,5.32515E0,5.2800384E0,5.14585E0,5.1825943E0,1.0152698E-3,-1.8582345E-4,2.8324127E-4,-1.7570257E-4,5.2823E0,-2.0610094E-4,6.332517E-4,5.370715E0,1.1906257E-4,1.0504724E-3,-3.147534E-4,2.1187664E-4,-2.9625895E-4,2.5422574E-4,1.09699795E-4,4.5044423E-4],"split_indices":[0,0,0,1,0,0,1,0,1,0,0,0,0,0,0,1,2,0,0,0,0,0,0,0,0,0,0,0,0,0,0,0,0,0,0],"split_type":[0,0,0,0,0,0,0,0,0,0,0,0,0,0,0,0,0,0,0,0,0,0,0,0,0,0,0,0,0,0,0,0,0,0,0],"sum_hessian":[6.7E1,6.6E1,1E0,3.8E1,2.8E1,3.1E1,7E0,5E0,2.3E1,2.7E1,4E0,2E0,5E0,3E0,2E0,9E0,1.4E1,1.4E1,1.3E1,3E0,1E0,2E0,3E0,6E0,3E0,3E0,1.1E1,1.2E1,2E0,6E0,7E0,1E0,5E0,6E0,5E0],"tree_param":{"num_deleted":"0","num_feature":"6","num_nodes":"35","size_leaf_vector":"0"}},{"base_weights":[9.026317E-4,6.311758E-4,9.545088E-3,4.3413488E-4,1.0421162E-3,9.35861E-4,2.1477307E-4,2.9298465E-3,6.8920536E-4,1.4092705E-4,2.8879642E-3,-8.031726E-4,5.0843204E-4,3.0029737E-4,1.3130052E-3,-4.4488907E-4,4.1621923E-4,3.5805702E-3,4.0507317E-4,-5.308787E-5,-1.0443529E-3,1.2284626E-3,1.262216E-5,9.902319E-4,8.4833664E-5,1.52119E-3,3.194809E-5,1.765728E-3,-2.8814587E-5,1.4565944E-3,-5.264282E-4,-1.1946678E-3,4.7599353E-4],"categories":[],"categories_nodes":[],"categories_segments":[],"categories_sizes":[],"default_left":[1,1,0,1,1,1,1,0,1,1,1,1,1,1,1,0,1,0,0,0,0,1,1,0,0,0,0,0,0,0,0,0,0],"id":27,"left_children":[1,3,-1,5,7,9,11,-1,13,15,17,19,21,23,25,-1,27,-1,-1,-1,-1,29,31,-1,-1,-1,-1,-1,-1,-1,-1,-1,-1],"loss_changes":[1.5350648E-4,4.9727078E-6,0E0,4.971802E-6,1.1970946E-5,2.1318112E-5,1.0571941E-5,0E0,4.2151223E-6,1.959148E-6,5.428268E-6,1.3918029E-6,9.623447E-6,1.8485208E-6,1.8182773E-6,0E0,4.8554953E-6,0E0,0E0,1.4050958E-7,6.0909315E-7,5.1706047E-6,1.0078856E-5,0E0,6.7575144E-7,0E0,0E0,0E0,0E0,0E0,0E0,0E0,0E0],"parents":[2147483647,0,0,1,1,3,3,4,4,5,5,6,6,8,8,9,9,10,10,11,11,12,12,13,13,14,14,16,16,21,21,22,22],"right_children":[2,4,-1,6,8,10,12,-1,14,16,18,20,22,24,26,-1,28,-1,-1,-1,-1,30,32,-1,-1,-1,-1,-1,-1,-1,-1,-1,-1],"split_conditions":[5.4543E0,5.2413135E0,2.8635263E-3,5.17605E0,5.247207E0,5.12665E0,5.1825943E0,8.78954E-4,5.3624153E0,5.051158E0,5.1558E0,5.1541E0,5.2487354E0,5.255843E0,5.4753385E0,-1.3346673E-4,5.0674725E0,1.0741712E-3,1.2152195E-4,-1.5926362E-5,-3.1330588E-4,5.2113914E0,5.267128E0,2.9706958E-4,2.5450101E-5,4.5635703E-4,9.584427E-6,5.297184E-4,-8.644377E-6,4.3697836E-4,-1.5792847E-4,-3.5840034E-4,1.4279806E-4],"split_indices":[0,2,0,1,2,0,0,0,0,2,0,0,1,2,1,0,0,0,0,0,0,0,1,0,0,0,0,0,0,0,0,0,0],"split_type":[0,0,0,0,0,0,0,0,0,0,0,0,0,0,0,0,0,0,0,0,0,0,0,0,0,0,0,0,0,0,0,0,0],"sum_hessian":[6.7E1,6.6E1,1E0,4.6E1,2E1,1.3E1,3.3E1,2E0,1.8E1,1E1,3E0,7E0,2.6E1,1.2E1,6E0,3E0,7E0,2E0,1E0,2E0,5E0,1E1,1.6E1,2E0,1E1,5E0,1E0,1E0,6E0,9E0,1E0,4E0,1.2E1],"tree_param":{"num_deleted":"0","num_feature":"6","num_nodes":"33","size_leaf_vector":"0"}},{"base_weights":[7.1794144E-4,4.8646642E-4,8.113384E-3,3.3201056E-4,8.089883E-4,4.6105386E-4,-3.5470724E-4,2.3439724E-3,5.2404404E-4,2.876371E-4,1.0264185E-3,-7.1287155E-4,1.8167496E-4,1.5618584E-4,9.154214E-4,4.3152223E-4,-2.086401E-3,2.603054E-3,5.039573E-4,8.446376E-4,-9.065204E-5,1.3513565E-3,4.7222772E-4,2.4374008E-4,1.0405268E-3,-4.7334036E-4,9.086132E-4,-5.514622E-4,2.3166339E-4,8.31604E-5,1.2087822E-3],"categories":[],"categories_nodes":[],"categories_segments":[],"categories_sizes":[],"default_left":[1,1,0,1,1,1,1,0,1,1,1,0,0,1,1,1,0,0,1,0,1,0,1,0,0,0,0,0,0,0,0],"id":28,"left_children":[1,3,-1,5,7,9,11,-1,13,15,17,-1,-1,19,21,23,-1,-1,25,-1,27,-1,29,-1,-1,-1,-1,-1,-1,-1,-1],"loss_changes":[1.1245962E-4,3.0690408E-6,0E0,4.3285063E-6,7.956738E-6,3.626511E-6,1.6664146E-6,0E0,2.5924805E-6,1.183117E-5,6.101751E-6,1.770984E-7,0E0,1.9458637E-6,1.100685E-6,3.2915482E-6,0E0,0E0,3.5938378E-6,0E0,1.4644895E-6,5.867578E-7,1.618893E-6,0E0,0E0,0E0,0E0,0E0,0E0,0E0,0E0],"parents":[2147483647,0,0,1,1,3,3,4,4,5,5,6,6,8,8,9,9,10,10,13,13,14,14,15,15,18,18,20,20,22,22],"right_children":[2,4,-1,6,8,10,12,-1,14,16,18,-1,-1,20,22,24,-1,-1,26,-1,28,-1,30,-1,-1,-1,-1,-1,-1,-1,-1],"split_conditions":[5.4543E0,5.2413135E0,2.4340153E-3,5.2122E0,5.247207E0,5.2092E0,5.223065E0,7.0319173E-4,5.358E0,5.2077E0,5.2113914E0,-2.1386148E-4,5.450249E-5,5.3104E0,5.40235E0,5.19835E0,-6.259203E-4,7.8091625E-4,5.262978E0,2.5339128E-4,5.3529E0,4.0540696E-4,5.4261E0,7.312203E-5,3.1215805E-4,-1.4200211E-4,2.7258397E-4,-1.6543866E-4,6.949902E-5,2.494812E-5,3.6263466E-4],"split_indices":[0,2,0,2,2,0,2,0,0,0,0,0,0,1,1,0,0,0,1,0,1,0,0,0,0,0,0,0,0,0,0],"split_type":[0,0,0,0,0,0,0,0,0,0,0,0,0,0,0,0,0,0,0,0,0,0,0,0,0,0,0,0,0,0,0],"sum_hessian":[6.7E1,6.6E1,1E0,4.6E1,2E1,3.9E1,7E0,2E0,1.8E1,3.1E1,8E0,4E0,3E0,1E1,8E0,3E1,1E0,1E0,7E0,2E0,8E0,3E0,5E0,2.4E1,6E0,2E0,5E0,3E0,5E0,4E0,1E0],"tree_param":{"num_deleted":"0","num_feature":"6","num_nodes":"31","size_leaf_vector":"0"}},{"base_weights":[5.702482E-4,3.729009E-4,6.8962574E-3,-3.9947033E-4,4.1534752E-4,1.0787963E-3,2.871687E-4,4.2549768E-4,3.4792423E-3,-4.200538E-4,4.7352098E-4,1.4643669E-3,1.12593174E-4,-1.077652E-4,5.681389E-4,-6.4436597E-4,4.723072E-4,1.2036959E-3,-8.7308884E-4,2.2125244E-3,4.6389812E-4],"categories":[],"categories_nodes":[],"categories_segments":[],"categories_sizes":[],"default_left":[1,1,0,0,1,1,1,1,0,0,1,0,1,1,1,0,0,0,0,0,0],"id":29,"left_children":[1,3,-1,-1,5,7,9,11,-1,-1,13,-1,15,17,19,-1,-1,-1,-1,-1,-1],"loss_changes":[8.232098E-5,2.3624843E-6,0E0,0E0,5.1327706E-6,1.42016725E-5,7.447493E-6,2.760724E-6,0E0,9.80599E-7,2.4812307E-6,0E0,2.4826493E-6,8.076779E-6,5.4872735E-6,0E0,0E0,0E0,0E0,0E0,0E0],"parents":[2147483647,0,0,1,1,4,4,5,5,6,6,7,7,10,10,12,12,13,13,14,14],"right_children":[2,4,-1,-1,6,8,10,12,-1,-1,14,-1,16,18,20,-1,-1,-1,-1,-1,-1],"split_conditions":[5.4543E0,5.051158E0,2.0688772E-3,-1.19841105E-4,5.16435E0,5.1422E0,5.1949E0,5.0674725E0,1.0437728E-3,-1.2601615E-4,5.161558E0,4.393101E-4,5.0682497E0,5.21635E0,5.1648083E0,-1.933098E-4,1.4169217E-4,3.6110877E-4,-2.6192667E-4,6.637573E-4,1.3916944E-4],"split_indices":[0,2,0,0,1,0,0,0,0,0,2,0,2,1,2,0,0,0,0,0,0],"split_type":[0,0,0,0,0,0,0,0,0,0,0,0,0,0,0,0,0,0,0,0,0],"sum_hessian":[6.7E1,6.6E1,1E0,3E0,6.3E1,9E0,5.4E1,8E0,1E0,1.1E1,4.3E1,1E0,7E0,6E0,3.7E1,2E0,5E0,2E0,4E0,1E0,3.6E1],"tree_param":{"num_deleted":"0","num_feature":"6","num_nodes":"21","size_leaf_vector":"0"}},{"base_weights":[4.60232E-4,2.9212327E-4,5.861759E-3,6.0612813E-4,2.0530488E-4,4.386902E-5,2.0008087E-3,-6.4543315E-4,3.2509366E-4,4.659891E-4,-1.7267466E-4,2.4205844E-3,3.707409E-4,-7.311503E-6,-8.9921954E-4,-1.2641483E-4,4.1855575E-4,-2.0853679E-4,1.2447834E-3,-5.400181E-4,1.5573502E-4,1.0315577E-3,-6.046295E-4,1.3618469E-3,3.3307076E-4,-1.5791257E-4,-1.6424656E-3,1.6212463E-4,1.8806458E-3,1.0530154E-4,5.12441E-4],"categories":[],"categories_nodes":[],"categories_segments":[],"categories_sizes":[],"default_left":[1,1,0,1,1,1,1,1,1,1,1,0,0,0,0,1,1,0,0,0,0,0,1,1,1,0,0,0,0,0,0],"id":30,"left_children":[1,3,-1,5,7,9,11,13,15,17,19,-1,-1,-1,-1,21,23,-1,-1,-1,-1,-1,25,27,29,-1,-1,-1,-1,-1,-1],"loss_changes":[6.003464E-5,1.7020725E-6,0E0,1.0890633E-5,5.7129055E-6,1.0859463E-6,1.8396422E-6,1.1270515E-6,2.07846E-6,2.3608507E-6,1.0492129E-6,8.2137376E-7,0E0,1.4258323E-7,0E0,5.607545E-6,2.7718984E-6,0E0,0E0,0E0,1.0396518E-7,5.1814527E-7,2.9859666E-6,1.5623446E-6,1.4985299E-6,0E0,0E0,0E0,0E0,0E0,0E0],"parents":[2147483647,0,0,1,1,3,3,4,4,5,5,6,6,7,7,8,8,9,9,10,10,15,15,16,16,22,22,23,23,24,24],"right_children":[2,4,-1,6,8,10,12,14,16,18,20,-1,-1,-1,-1,22,24,-1,-1,-1,-1,-1,26,28,30,-1,-1,-1,-1,-1,-1],"split_conditions":[5.4543E0,5.17605E0,1.7585278E-3,5.12665E0,5.1772947E0,5.0674725E0,5.1558E0,5.1541E0,5.16365E0,5.0581226E0,5.0711E0,7.261754E-4,1.11222274E-4,-2.1934509E-6,-2.6976588E-4,5.141863E0,5.1648083E0,-6.256104E-5,3.7343503E-4,-1.6200542E-4,4.6720506E-5,3.0946732E-4,5.24515E0,5.19645E0,5.2413135E0,-4.737377E-5,-4.927397E-4,4.8637394E-5,5.6419376E-4,3.159046E-5,1.537323E-4],"split_indices":[0,1,0,0,0,0,0,0,2,0,2,0,0,0,0,2,2,0,0,0,0,0,1,0,2,0,0,0,0,0,0],"split_type":[0,0,0,0,0,0,0,0,0,0,0,0,0,0,0,0,0,0,0,0,0,0,0,0,0,0,0,0,0,0,0],"sum_hessian":[6.7E1,6.6E1,1E0,1.3E1,5.3E1,1E1,3E0,6E0,4.7E1,3E0,7E0,2E0,1E0,2E0,4E0,8E0,3.9E1,2E0,1E0,3E0,4E0,2E0,6E0,2E0,3.7E1,5E0,1E0,1E0,1E0,1.7E1,2E1],"tree_param":{"num_deleted":"0","num_feature":"6","num_nodes":"31","size_leaf_vector":"0"}},{"base_weights":[3.6764846E-4,2.2440526E-4,4.9824715E-3,4.9809046E-4,1.4929418E-4,9.62019E-5,1.9396147E-3,-4.905292E-4,2.3949146E-4,2.5942326E-3,3.1518936E-4,4.0117264E-4,6.109476E-5,1.6515152E-4,2.0769436E-3,-1.6798693E-4,5.402565E-4,4.6509964E-4,-2.0434639E-4,-7.6230365E-4,-3.792445E-5,1.1382103E-3,1.5123685E-4],"categories":[],"categories_nodes":[],"categories_segments":[],"categories_sizes":[],"default_left":[1,1,0,1,1,0,1,0,1,0,0,1,1,1,0,1,1,0,0,0,0,0,0],"id":31,"left_children":[1,3,-1,5,7,-1,9,-1,11,-1,-1,13,15,17,-1,19,21,-1,-1,-1,-1,-1,-1],"loss_changes":[4.3832762E-5,1.3029432E-6,0E0,7.924055E-6,3.2338353E-6,6.083002E-7,2.3724579E-6,6.503127E-7,1.3599731E-6,0E0,0E0,9.544925E-6,2.7251685E-6,2.644136E-6,0E0,1.2851614E-6,1.6887866E-6,0E0,0E0,0E0,0E0,0E0,0E0],"parents":[2147483647,0,0,1,1,3,3,4,4,6,6,8,8,11,11,12,12,13,13,15,15,16,16],"right_children":[2,4,-1,6,8,-1,10,-1,12,-1,-1,14,16,18,-1,20,22,-1,-1,-1,-1,-1,-1],"split_conditions":[5.4543E0,5.17605E0,1.4947415E-3,5.1422E0,5.1772947E0,2.886057E-5,5.1558E0,-1.4715876E-4,5.2727003E0,7.782698E-4,9.455681E-5,5.26025E0,5.3592157E0,5.250985E0,6.230831E-4,5.2823E0,5.40235E0,1.395299E-4,-6.130392E-5,-2.286911E-4,-1.1377335E-5,3.414631E-4,4.5371056E-5],"split_indices":[0,1,0,0,0,0,0,0,0,0,0,0,0,1,0,0,1,0,0,0,0,0,0],"split_type":[0,0,0,0,0,0,0,0,0,0,0,0,0,0,0,0,0,0,0,0,0,0,0],"sum_hessian":[6.7E1,6.6E1,1E0,1.3E1,5.3E1,1.1E1,2E0,6E0,4.7E1,1E0,1E0,2.4E1,2.3E1,2.2E1,2E0,1.6E1,7E0,1.2E1,1E1,2E0,1.4E1,2E0,5E0],"tree_param":{"num_deleted":"0","num_feature":"6","num_nodes":"23","size_leaf_vector":"0"}},{"base_weights":[3.029038E-4,1.8100596E-4,4.235029E-3],"categories":[],"categories_nodes":[],"categories_segments":[],"categories_sizes":[],"default_left":[1,0,0],"id":32,"left_children":[1,-1,-1],"loss_changes":[3.1827025E-5,9.376961E-7,0E0],"parents":[2147483647,0,0],"right_children":[2,-1,-1],"split_conditions":[5.4543E0,5.4301792E-5,1.2705089E-3],"split_indices":[0,0,0],"split_type":[0,0,0],"sum_hessian":[6.7E1,6.6E1,1E0],"tree_param":{"num_deleted":"0","num_feature":"6","num_nodes":"3","size_leaf_vector":"0"}},{"base_weights":[2.3146237E-4,1.2745785E-4,3.5998821E-3,1.0420337E-4,8.3112717E-4,1.5006527E-4,-4.8532485E-4,6.626007E-5,3.8686395E-4,1.5840531E-4,-4.0274858E-4,1.1403083E-3,4.0690105E-5,5.8099627E-5,4.974471E-4,-3.6062513E-4,5.021095E-4],"categories":[],"categories_nodes":[],"categories_segments":[],"categories_sizes":[],"default_left":[1,1,0,1,0,1,0,1,1,1,0,0,1,0,0,0,0],"id":33,"left_children":[1,3,-1,5,-1,7,-1,9,11,13,-1,-1,15,-1,-1,-1,-1],"loss_changes":[2.3363664E-5,1.0097463E-6,0E0,1.8572647E-6,0E0,1.204754E-6,0E0,2.0949922E-6,4.1267654E-6,1.3314112E-6,7.4389413E-7,6.131586E-7,2.403169E-6,0E0,0E0,0E0,0E0],"parents":[2147483647,0,0,1,1,3,3,5,5,7,7,8,8,9,9,12,12],"right_children":[2,4,-1,6,-1,8,-1,10,12,14,-1,-1,16,-1,-1,-1,-1],"split_conditions":[5.4543E0,5.4261E0,1.0799647E-3,5.329542E0,2.4933816E-4,5.2413135E0,-1.4559746E-4,5.2122E0,5.255843E0,5.2092E0,-1.2082458E-4,3.420925E-4,5.3638E0,1.742989E-5,1.4923414E-4,-1.08187545E-4,1.5063287E-4],"split_indices":[0,0,0,2,0,2,0,2,2,0,0,0,1,0,0,0,0],"split_type":[0,0,0,0,0,0,0,0,0,0,0,0,0,0,0,0,0],"sum_hessian":[6.7E1,6.6E1,1E0,6.5E1,1E0,6.1E1,4E0,4.6E1,1.5E1,3.9E1,7E0,4E0,1.1E1,3.1E1,8E0,6E0,5E0],"tree_param":{"num_deleted":"0","num_feature":"6","num_nodes":"17","size_leaf_vector":"0"}},{"base_weights":[1.8564392E-4,9.7075506E-5,3.059864E-3,3.4604754E-4,3.0729505E-5,3.5365422E-6,1.6007423E-3,-3.2357374E-4,1.288902E-4,2.1691322E-3,2.3198128E-4,5.8221817E-4,3.964192E-5,2.0360947E-4,1.4269352E-3,-8.575916E-4,1.4403288E-4,1.0867119E-3,-1.903534E-4,3.4093857E-5,-1.1661848E-3,5.051873E-4,-2.749761E-5],"categories":[],"categories_nodes":[],"categories_segments":[],"categories_sizes":[],"default_left":[1,1,0,1,1,0,1,0,1,0,0,1,1,1,0,1,1,0,0,0,0,0,0],"id":34,"left_children":[1,3,-1,5,7,-1,9,-1,11,-1,-1,13,15,17,-1,19,21,-1,-1,-1,-1,-1,-1],"loss_changes":[1.701339E-5,1.0960921E-6,0E0,6.010794E-6,1.9197525E-6,6.0951334E-7,1.830771E-6,3.6268887E-7,1.7166456E-6,0E0,0E0,1.948183E-6,3.5890546E-6,2.2943166E-6,0E0,1.1404316E-6,2.1201572E-6,0E0,0E0,0E0,0E0,0E0,0E0],"parents":[2147483647,0,0,1,1,3,3,4,4,6,6,8,8,11,11,12,12,13,13,15,15,16,16],"right_children":[2,4,-1,6,8,-1,10,-1,12,-1,-1,14,16,18,-1,20,22,-1,-1,-1,-1,-1,-1],"split_conditions":[5.4543E0,5.17605E0,9.1795926E-4,5.1422E0,5.19835E0,1.0609627E-6,5.1558E0,-9.707212E-5,5.2441998E0,6.507397E-4,6.959439E-5,5.23075E0,5.25975E0,5.1478662E0,4.280806E-4,5.2065496E0,5.2727003E0,3.2601357E-4,-5.7106023E-5,1.0228157E-5,-3.4985546E-4,1.515562E-4,-8.249283E-6],"split_indices":[0,1,0,0,0,0,0,0,1,0,0,1,1,2,0,0,0,0,0,0,0,0,0],"split_type":[0,0,0,0,0,0,0,0,0,0,0,0,0,0,0,0,0,0,0,0,0,0,0],"sum_hessian":[6.7E1,6.6E1,1E0,1.3E1,5.3E1,1.1E1,2E0,1.1E1,4.2E1,1E0,1E0,6E0,3.6E1,5E0,1E0,3E0,3.3E1,1E0,4E0,1E0,2E0,1E1,2.3E1],"tree_param":{"num_deleted":"0","num_feature":"6","num_nodes":"23","size_leaf_vector":"0"}},{"base_weights":[1.599929E-4,6.4495835E-5,2.207597E-3,1.0420065E-4,-3.49919E-4,6.810689E-5,7.793109E-4],"categories":[],"categories_nodes":[],"categories_segments":[],"categories_sizes":[],"default_left":[1,1,0,1,0,0,0],"id":35,"left_children":[1,3,-1,5,-1,-1,-1],"loss_changes":[1.315435E-5,1.122443E-6,0E0,1.4333264E-6,1.1817025E-7,9.352601E-7,0E0],"parents":[2147483647,0,0,1,1,3,3],"right_children":[2,4,-1,6,-1,-1,-1],"split_conditions":[5.4261E0,5.3980503E0,6.6227914E-4,5.3615E0,-1.04975705E-4,2.0432068E-5,2.3379327E-4],"split_indices":[0,1,0,0,0,0,0],"split_type":[0,0,0,0,0,0,0],"sum_hessian":[6.7E1,6.5E1,2E0,6E1,5E0,5.8E1,2E0],"tree_param":{"num_deleted":"0","num_feature":"6","num_nodes":"7","size_leaf_vector":"0"}},{"base_weights":[1.2386547E-4,5.7960624E-5,2.2697449E-3],"categories":[],"categories_nodes":[],"categories_segments":[],"categories_sizes":[],"default_left":[1,0,0],"id":36,"left_children":[1,-1,-1],"loss_changes":[9.485265E-6,8.3211E-7,0E0],"parents":[2147483647,0,0],"right_children":[2,-1,-1],"split_conditions":[5.4543E0,1.7388187E-5,6.8092346E-4],"split_indices":[0,0,0],"split_type":[0,0,0],"sum_hessian":[6.7E1,6.6E1,1E0],"tree_param":{"num_deleted":"0","num_feature":"6","num_nodes":"3","size_leaf_vector":"0"}},{"base_weights":[9.7190634E-5,4.10507E-5,1.9292831E-3],"categories":[],"categories_nodes":[],"categories_segments":[],"categories_sizes":[],"default_left":[1,0,0],"id":37,"left_children":[1,-1,-1],"loss_changes":[6.914843E-6,8.393049E-7,0E0],"parents":[2147483647,0,0],"right_children":[2,-1,-1],"split_conditions":[5.4543E0,1.231521E-5,5.7878497E-4],"split_indices":[0,0,0],"split_type":[0,0,0],"sum_hessian":[6.7E1,6.6E1,1E0],"tree_param":{"num_deleted":"0","num_feature":"6","num_nodes":"3","size_leaf_vector":"0"}},{"base_weights":[7.664456E-5,2.8837972E-5,1.639843E-3],"categories":[],"categories_nodes":[],"categories_segments":[],"categories_sizes":[],"default_left":[1,0,0],"id":38,"left_children":[1,-1,-1],"loss_changes":[5.034431E-6,8.4416223E-7,0E0],"parents":[2147483647,0,0],"right_children":[2,-1,-1],"split_conditions":[5.4543E0,8.651392E-6,4.9195293E-4],"split_indices":[0,0,0],"split_type":[0,0,0],"sum_hessian":[6.7E1,6.6E1,1E0],"tree_param":{"num_deleted":"0","num_feature":"6","num_nodes":"3","size_leaf_vector":"0"}},{"base_weights":[6.107723E-5,9.775162E-6,1.1693636E-3],"categories":[],"categories_nodes":[],"categories_segments":[],"categories_sizes":[],"default_left":[1,0,0],"id":39,"left_children":[1,-1,-1],"loss_changes":[3.8548715E-6,9.3404486E-7,4.2655756E-8],"parents":[2147483647,0,0],"right_children":[2,-1,-1],"split_conditions":[5.4261E0,2.9325486E-6,3.508091E-4],"split_indices":[0,0,0],"split_type":[0,0,0],"sum_hessian":[6.7E1,6.5E1,2E0],"tree_param":{"num_deleted":"0","num_feature":"6","num_nodes":"3","size_leaf_vector":"0"}},{"base_weights":[4.8020305E-5,1.2369298E-5,1.2183189E-3],"categories":[],"categories_nodes":[],"categories_segments":[],"categories_sizes":[],"default_left":[1,0,0],"id":40,"left_children":[1,-1,-1],"loss_changes":[2.8220484E-6,8.8861015E-7,0E0],"parents":[2147483647,0,0],"right_children":[2,-1,-1],"split_conditions":[5.4543E0,3.7107895E-6,3.6549568E-4],"split_indices":[0,0,0],"split_type":[0,0,0],"sum_hessian":[6.7E1,6.6E1,1E0],"tree_param":{"num_deleted":"0","num_feature":"6","num_nodes":"3","size_leaf_vector":"0"}},{"base_weights":[3.8939364E-5,8.611537E-6,1.0354519E-3],"categories":[],"categories_nodes":[],"categories_segments":[],"categories_sizes":[],"default_left":[1,0,0],"id":41,"left_children":[1,-1,-1],"loss_changes":[2.046183E-6,8.899572E-7,0E0],"parents":[2147483647,0,0],"right_children":[2,-1,-1],"split_conditions":[5.4543E0,2.583461E-6,3.1063557E-4],"split_indices":[0,0,0],"split_type":[0,0,0],"sum_hessian":[6.7E1,6.6E1,1E0],"tree_param":{"num_deleted":"0","num_feature":"6","num_nodes":"3","size_leaf_vector":"0"}},{"base_weights":[3.2060285E-5,6.2629356E-6,8.802414E-4],"categories":[],"categories_nodes":[],"categories_segments":[],"categories_sizes":[],"default_left":[1,0,0],"id":42,"left_children":[1,-1,-1],"loss_changes":[1.4823831E-6,8.9078543E-7,0E0],"parents":[2147483647,0,0],"right_children":[2,-1,-1],"split_conditions":[5.4543E0,1.8788808E-6,2.6407244E-4],"split_indices":[0,0,0],"split_type":[0,0,0],"sum_hessian":[6.7E1,6.6E1,1E0],"tree_param":{"num_deleted":"0","num_feature":"6","num_nodes":"3","size_leaf_vector":"0"}},{"base_weights":[2.6324216E-5,-1.0259224E-6,6.192525E-4],"categories":[],"categories_nodes":[],"categories_segments":[],"categories_sizes":[],"default_left":[1,0,0],"id":43,"left_children":[1,-1,-1],"loss_changes":[1.103369E-6,9.378498E-7,3.437856E-8],"parents":[2147483647,0,0],"right_children":[2,-1,-1],"split_conditions":[5.4261E0,-3.0777673E-7,1.8577576E-4],"split_indices":[0,0,0],"split_type":[0,0,0],"sum_hessian":[6.7E1,6.5E1,2E0],"tree_param":{"num_deleted":"0","num_feature":"6","num_nodes":"3","size_leaf_vector":"0"}},{"base_weights":[2.1310414E-5],"categories":[],"categories_nodes":[],"categories_segments":[],"categories_sizes":[],"default_left":[0],"id":44,"left_children":[-1],"loss_changes":[8.279129E-7],"parents":[2147483647],"right_children":[-1],"split_conditions":[6.3931243E-6],"split_indices":[0],"split_type":[0],"sum_hessian":[6.7E1],"tree_param":{"num_deleted":"0","num_feature":"6","num_nodes":"1","size_leaf_vector":"0"}},{"base_weights":[1.52026905E-5],"categories":[],"categories_nodes":[],"categories_segments":[],"categories_sizes":[],"default_left":[0],"id":45,"left_children":[-1],"loss_changes":[8.357778E-7],"parents":[2147483647],"right_children":[-1],"split_conditions":[4.560807E-6],"split_indices":[0],"split_type":[0],"sum_hessian":[6.7E1],"tree_param":{"num_deleted":"0","num_feature":"6","num_nodes":"1","size_leaf_vector":"0"}},{"base_weights":[1.0504442E-5],"categories":[],"categories_nodes":[],"categories_segments":[],"categories_sizes":[],"default_left":[0],"id":46,"left_children":[-1],"loss_changes":[8.418017E-7],"parents":[2147483647],"right_children":[-1],"split_conditions":[3.1513327E-6],"split_indices":[0],"split_type":[0],"sum_hessian":[6.7E1],"tree_param":{"num_deleted":"0","num_feature":"6","num_nodes":"1","size_leaf_vector":"0"}},{"base_weights":[7.215668E-6],"categories":[],"categories_nodes":[],"categories_segments":[],"categories_sizes":[],"default_left":[0],"id":47,"left_children":[-1],"loss_changes":[8.4600487E-7],"parents":[2147483647],"right_children":[-1],"split_conditions":[2.1647006E-6],"split_indices":[0],"split_type":[0],"sum_hessian":[6.7E1],"tree_param":{"num_deleted":"0","num_feature":"6","num_nodes":"1","size_leaf_vector":"0"}},{"base_weights":[4.866544E-6],"categories":[],"categories_nodes":[],"categories_segments":[],"categories_sizes":[],"default_left":[0],"id":48,"left_children":[-1],"loss_changes":[8.490003E-7],"parents":[2147483647],"right_children":[-1],"split_conditions":[1.4599632E-6],"split_indices":[0],"split_type":[0],"sum_hessian":[6.7E1],"tree_param":{"num_deleted":"0","num_feature":"6","num_nodes":"1","size_leaf_vector":"0"}},{"base_weights":[3.4570694E-6],"categories":[],"categories_nodes":[],"categories_segments":[],"categories_sizes":[],"default_left":[0],"id":49,"left_children":[-1],"loss_changes":[8.5079483E-7],"parents":[2147483647],"right_children":[-1],"split_conditions":[1.0371209E-6],"split_indices":[0],"split_type":[0],"sum_hessian":[6.7E1],"tree_param":{"num_deleted":"0","num_feature":"6","num_nodes":"1","size_leaf_vector":"0"}},{"base_weights":[2.5174197E-6],"categories":[],"categories_nodes":[],"categories_segments":[],"categories_sizes":[],"default_left":[0],"id":50,"left_children":[-1],"loss_changes":[8.519901E-7],"parents":[2147483647],"right_children":[-1],"split_conditions":[7.552259E-7],"split_indices":[0],"split_type":[0],"sum_hessian":[6.7E1],"tree_param":{"num_deleted":"0","num_feature":"6","num_nodes":"1","size_leaf_vector":"0"}},{"base_weights":[1.57777E-6],"categories":[],"categories_nodes":[],"categories_segments":[],"categories_sizes":[],"default_left":[0],"id":51,"left_children":[-1],"loss_changes":[8.5318436E-7],"parents":[2147483647],"right_children":[-1],"split_conditions":[4.7333103E-7],"split_indices":[0],"split_type":[0],"sum_hessian":[6.7E1],"tree_param":{"num_deleted":"0","num_feature":"6","num_nodes":"1","size_leaf_vector":"0"}},{"base_weights":[1.1079452E-6],"categories":[],"categories_nodes":[],"categories_segments":[],"categories_sizes":[],"default_left":[0],"id":52,"left_children":[-1],"loss_changes":[8.537812E-7],"parents":[2147483647],"right_children":[-1],"split_conditions":[3.3238356E-7],"split_indices":[0],"split_type":[0],"sum_hessian":[6.7E1],"tree_param":{"num_deleted":"0","num_feature":"6","num_nodes":"1","size_leaf_vector":"0"}},{"base_weights":[6.381203E-7],"categories":[],"categories_nodes":[],"categories_segments":[],"categories_sizes":[],"default_left":[0],"id":53,"left_children":[-1],"loss_changes":[8.543778E-7],"parents":[2147483647],"right_children":[-1],"split_conditions":[1.914361E-7],"split_indices":[0],"split_type":[0],"sum_hessian":[6.7E1],"tree_param":{"num_deleted":"0","num_feature":"6","num_nodes":"1","size_leaf_vector":"0"}},{"base_weights":[6.381203E-7],"categories":[],"categories_nodes":[],"categories_segments":[],"categories_sizes":[],"default_left":[0],"id":54,"left_children":[-1],"loss_changes":[8.543778E-7],"parents":[2147483647],"right_children":[-1],"split_conditions":[1.914361E-7],"split_indices":[0],"split_type":[0],"sum_hessian":[6.7E1],"tree_param":{"num_deleted":"0","num_feature":"6","num_nodes":"1","size_leaf_vector":"0"}},{"base_weights":[6.381203E-7],"categories":[],"categories_nodes":[],"categories_segments":[],"categories_sizes":[],"default_left":[0],"id":55,"left_children":[-1],"loss_changes":[8.543778E-7],"parents":[2147483647],"right_children":[-1],"split_conditions":[1.914361E-7],"split_indices":[0],"split_type":[0],"sum_hessian":[6.7E1],"tree_param":{"num_deleted":"0","num_feature":"6","num_nodes":"1","size_leaf_vector":"0"}},{"base_weights":[6.381203E-7],"categories":[],"categories_nodes":[],"categories_segments":[],"categories_sizes":[],"default_left":[0],"id":56,"left_children":[-1],"loss_changes":[8.543778E-7],"parents":[2147483647],"right_children":[-1],"split_conditions":[1.914361E-7],"split_indices":[0],"split_type":[0],"sum_hessian":[6.7E1],"tree_param":{"num_deleted":"0","num_feature":"6","num_nodes":"1","size_leaf_vector":"0"}},{"base_weights":[6.381203E-7],"categories":[],"categories_nodes":[],"categories_segments":[],"categories_sizes":[],"default_left":[0],"id":57,"left_children":[-1],"loss_changes":[8.543778E-7],"parents":[2147483647],"right_children":[-1],"split_conditions":[1.914361E-7],"split_indices":[0],"split_type":[0],"sum_hessian":[6.7E1],"tree_param":{"num_deleted":"0","num_feature":"6","num_nodes":"1","size_leaf_vector":"0"}},{"base_weights":[6.381203E-7],"categories":[],"categories_nodes":[],"categories_segments":[],"categories_sizes":[],"default_left":[0],"id":58,"left_children":[-1],"loss_changes":[8.543778E-7],"parents":[2147483647],"right_children":[-1],"split_conditions":[1.914361E-7],"split_indices":[0],"split_type":[0],"sum_hessian":[6.7E1],"tree_param":{"num_deleted":"0","num_feature":"6","num_nodes":"1","size_leaf_vector":"0"}},{"base_weights":[6.381203E-7],"categories":[],"categories_nodes":[],"categories_segments":[],"categories_sizes":[],"default_left":[0],"id":59,"left_children":[-1],"loss_changes":[8.543778E-7],"parents":[2147483647],"right_children":[-1],"split_conditions":[1.914361E-7],"split_indices":[0],"split_type":[0],"sum_hessian":[6.7E1],"tree_param":{"num_deleted":"0","num_feature":"6","num_nodes":"1","size_leaf_vector":"0"}},{"base_weights":[6.381203E-7],"categories":[],"categories_nodes":[],"categories_segments":[],"categories_sizes":[],"default_left":[0],"id":60,"left_children":[-1],"loss_changes":[8.543778E-7],"parents":[2147483647],"right_children":[-1],"split_conditions":[1.914361E-7],"split_indices":[0],"split_type":[0],"sum_hessian":[6.7E1],"tree_param":{"num_deleted":"0","num_feature":"6","num_nodes":"1","size_leaf_vector":"0"}},{"base_weights":[6.381203E-7],"categories":[],"categories_nodes":[],"categories_segments":[],"categories_sizes":[],"default_left":[0],"id":61,"left_children":[-1],"loss_changes":[8.543778E-7],"parents":[2147483647],"right_children":[-1],"split_conditions":[1.914361E-7],"split_indices":[0],"split_type":[0],"sum_hessian":[6.7E1],"tree_param":{"num_deleted":"0","num_feature":"6","num_nodes":"1","size_leaf_vector":"0"}},{"base_weights":[6.381203E-7],"categories":[],"categories_nodes":[],"categories_segments":[],"categories_sizes":[],"default_left":[0],"id":62,"left_children":[-1],"loss_changes":[8.543778E-7],"parents":[2147483647],"right_children":[-1],"split_conditions":[1.914361E-7],"split_indices":[0],"split_type":[0],"sum_hessian":[6.7E1],"tree_param":{"num_deleted":"0","num_feature":"6","num_nodes":"1","size_leaf_vector":"0"}},{"base_weights":[6.381203E-7],"categories":[],"categories_nodes":[],"categories_segments":[],"categories_sizes":[],"default_left":[0],"id":63,"left_children":[-1],"loss_changes":[8.543778E-7],"parents":[2147483647],"right_children":[-1],"split_conditions":[1.914361E-7],"split_indices":[0],"split_type":[0],"sum_hessian":[6.7E1],"tree_param":{"num_deleted":"0","num_feature":"6","num_nodes":"1","size_leaf_vector":"0"}},{"base_weights":[6.381203E-7],"categories":[],"categories_nodes":[],"categories_segments":[],"categories_sizes":[],"default_left":[0],"id":64,"left_children":[-1],"loss_changes":[8.543778E-7],"parents":[2147483647],"right_children":[-1],"split_conditions":[1.914361E-7],"split_indices":[0],"split_type":[0],"sum_hessian":[6.7E1],"tree_param":{"num_deleted":"0","num_feature":"6","num_nodes":"1","size_leaf_vector":"0"}},{"base_weights":[6.381203E-7],"categories":[],"categories_nodes":[],"categories_segments":[],"categories_sizes":[],"default_left":[0],"id":65,"left_children":[-1],"loss_changes":[8.543778E-7],"parents":[2147483647],"right_children":[-1],"split_conditions":[1.914361E-7],"split_indices":[0],"split_type":[0],"sum_hessian":[6.7E1],"tree_param":{"num_deleted":"0","num_feature":"6","num_nodes":"1","size_leaf_vector":"0"}},{"base_weights":[6.381203E-7],"categories":[],"categories_nodes":[],"categories_segments":[],"categories_sizes":[],"default_left":[0],"id":66,"left_children":[-1],"loss_changes":[8.543778E-7],"parents":[2147483647],"right_children":[-1],"split_conditions":[1.914361E-7],"split_indices":[0],"split_type":[0],"sum_hessian":[6.7E1],"tree_param":{"num_deleted":"0","num_feature":"6","num_nodes":"1","size_leaf_vector":"0"}},{"base_weights":[6.381203E-7],"categories":[],"categories_nodes":[],"categories_segments":[],"categories_sizes":[],"default_left":[0],"id":67,"left_children":[-1],"loss_changes":[8.543778E-7],"parents":[2147483647],"right_children":[-1],"split_conditions":[1.914361E-7],"split_indices":[0],"split_type":[0],"sum_hessian":[6.7E1],"tree_param":{"num_deleted":"0","num_feature":"6","num_nodes":"1","size_leaf_vector":"0"}},{"base_weights":[6.381203E-7],"categories":[],"categories_nodes":[],"categories_segments":[],"categories_sizes":[],"default_left":[0],"id":68,"left_children":[-1],"loss_changes":[8.543778E-7],"parents":[2147483647],"right_children":[-1],"split_conditions":[1.914361E-7],"split_indices":[0],"split_type":[0],"sum_hessian":[6.7E1],"tree_param":{"num_deleted":"0","num_feature":"6","num_nodes":"1","size_leaf_vector":"0"}},{"base_weights":[6.381203E-7],"categories":[],"categories_nodes":[],"categories_segments":[],"categories_sizes":[],"default_left":[0],"id":69,"left_children":[-1],"loss_changes":[8.543778E-7],"parents":[2147483647],"right_children":[-1],"split_conditions":[1.914361E-7],"split_indices":[0],"split_type":[0],"sum_hessian":[6.7E1],"tree_param":{"num_deleted":"0","num_feature":"6","num_nodes":"1","size_leaf_vector":"0"}},{"base_weights":[6.381203E-7],"categories":[],"categories_nodes":[],"categories_segments":[],"categories_sizes":[],"default_left":[0],"id":70,"left_children":[-1],"loss_changes":[8.543778E-7],"parents":[2147483647],"right_children":[-1],"split_conditions":[1.914361E-7],"split_indices":[0],"split_type":[0],"sum_hessian":[6.7E1],"tree_param":{"num_deleted":"0","num_feature":"6","num_nodes":"1","size_leaf_vector":"0"}},{"base_weights":[6.381203E-7],"categories":[],"categories_nodes":[],"categories_segments":[],"categories_sizes":[],"default_left":[0],"id":71,"left_children":[-1],"loss_changes":[8.543778E-7],"parents":[2147483647],"right_children":[-1],"split_conditions":[1.914361E-7],"split_indices":[0],"split_type":[0],"sum_hessian":[6.7E1],"tree_param":{"num_deleted":"0","num_feature":"6","num_nodes":"1","size_leaf_vector":"0"}},{"base_weights":[6.381203E-7],"categories":[],"categories_nodes":[],"categories_segments":[],"categories_sizes":[],"default_left":[0],"id":72,"left_children":[-1],"loss_changes":[8.543778E-7],"parents":[2147483647],"right_children":[-1],"split_conditions":[1.914361E-7],"split_indices":[0],"split_type":[0],"sum_hessian":[6.7E1],"tree_param":{"num_deleted":"0","num_feature":"6","num_nodes":"1","size_leaf_vector":"0"}},{"base_weights":[6.381203E-7],"categories":[],"categories_nodes":[],"categories_segments":[],"categories_sizes":[],"default_left":[0],"id":73,"left_children":[-1],"loss_changes":[8.543778E-7],"parents":[2147483647],"right_children":[-1],"split_conditions":[1.914361E-7],"split_indices":[0],"split_type":[0],"sum_hessian":[6.7E1],"tree_param":{"num_deleted":"0","num_feature":"6","num_nodes":"1","size_leaf_vector":"0"}},{"base_weights":[6.381203E-7],"categories":[],"categories_nodes":[],"categories_segments":[],"categories_sizes":[],"default_left":[0],"id":74,"left_children":[-1],"loss_changes":[8.543778E-7],"parents":[2147483647],"right_children":[-1],"split_conditions":[1.914361E-7],"split_indices":[0],"split_type":[0],"sum_hessian":[6.7E1],"tree_param":{"num_deleted":"0","num_feature":"6","num_nodes":"1","size_leaf_vector":"0"}},{"base_weights":[6.381203E-7],"categories":[],"categories_nodes":[],"categories_segments":[],"categories_sizes":[],"default_left":[0],"id":75,"left_children":[-1],"loss_changes":[8.543778E-7],"parents":[2147483647],"right_children":[-1],"split_conditions":[1.914361E-7],"split_indices":[0],"split_type":[0],"sum_hessian":[6.7E1],"tree_param":{"num_deleted":"0","num_feature":"6","num_nodes":"1","size_leaf_vector":"0"}},{"base_weights":[6.381203E-7],"categories":[],"categories_nodes":[],"categories_segments":[],"categories_sizes":[],"default_left":[0],"id":76,"left_children":[-1],"loss_changes":[8.543778E-7],"parents":[2147483647],"right_children":[-1],"split_conditions":[1.914361E-7],"split_indices":[0],"split_type":[0],"sum_hessian":[6.7E1],"tree_param":{"num_deleted":"0","num_feature":"6","num_nodes":"1","size_leaf_vector":"0"}},{"base_weights":[6.381203E-7],"categories":[],"categories_nodes":[],"categories_segments":[],"categories_sizes":[],"default_left":[0],"id":77,"left_children":[-1],"loss_changes":[8.543778E-7],"parents":[2147483647],"right_children":[-1],"split_conditions":[1.914361E-7],"split_indices":[0],"split_type":[0],"sum_hessian":[6.7E1],"tree_param":{"num_deleted":"0","num_feature":"6","num_nodes":"1","size_leaf_vector":"0"}},{"base_weights":[6.381203E-7],"categories":[],"categories_nodes":[],"categories_segments":[],"categories_sizes":[],"default_left":[0],"id":78,"left_children":[-1],"loss_changes":[8.543778E-7],"parents":[2147483647],"right_children":[-1],"split_conditions":[1.914361E-7],"split_indices":[0],"split_type":[0],"sum_hessian":[6.7E1],"tree_param":{"num_deleted":"0","num_feature":"6","num_nodes":"1","size_leaf_vector":"0"}},{"base_weights":[6.381203E-7],"categories":[],"categories_nodes":[],"categories_segments":[],"categories_sizes":[],"default_left":[0],"id":79,"left_children":[-1],"loss_changes":[8.543778E-7],"parents":[2147483647],"right_children":[-1],"split_conditions":[1.914361E-7],"split_indices":[0],"split_type":[0],"sum_hessian":[6.7E1],"tree_param":{"num_deleted":"0","num_feature":"6","num_nodes":"1","size_leaf_vector":"0"}},{"base_weights":[6.381203E-7],"categories":[],"categories_nodes":[],"categories_segments":[],"categories_sizes":[],"default_left":[0],"id":80,"left_children":[-1],"loss_changes":[8.543778E-7],"parents":[2147483647],"right_children":[-1],"split_conditions":[1.914361E-7],"split_indices":[0],"split_type":[0],"sum_hessian":[6.7E1],"tree_param":{"num_deleted":"0","num_feature":"6","num_nodes":"1","size_leaf_vector":"0"}},{"base_weights":[6.381203E-7],"categories":[],"categories_nodes":[],"categories_segments":[],"categories_sizes":[],"default_left":[0],"id":81,"left_children":[-1],"loss_changes":[8.543778E-7],"parents":[2147483647],"right_children":[-1],"split_conditions":[1.914361E-7],"split_indices":[0],"split_type":[0],"sum_hessian":[6.7E1],"tree_param":{"num_deleted":"0","num_feature":"6","num_nodes":"1","size_leaf_vector":"0"}},{"base_weights":[6.381203E-7],"categories":[],"categories_nodes":[],"categories_segments":[],"categories_sizes":[],"default_left":[0],"id":82,"left_children":[-1],"loss_changes":[8.543778E-7],"parents":[2147483647],"right_children":[-1],"split_conditions":[1.914361E-7],"split_indices":[0],"split_type":[0],"sum_hessian":[6.7E1],"tree_param":{"num_deleted":"0","num_feature":"6","num_nodes":"1","size_leaf_vector":"0"}},{"base_weights":[6.381203E-7],"categories":[],"categories_nodes":[],"categories_segments":[],"categories_sizes":[],"default_left":[0],"id":83,"left_children":[-1],"loss_changes":[8.543778E-7],"parents":[2147483647],"right_children":[-1],"split_conditions":[1.914361E-7],"split_indices":[0],"split_type":[0],"sum_hessian":[6.7E1],"tree_param":{"num_deleted":"0","num_feature":"6","num_nodes":"1","size_leaf_vector":"0"}},{"base_weights":[6.381203E-7],"categories":[],"categories_nodes":[],"categories_segments":[],"categories_sizes":[],"default_left":[0],"id":84,"left_children":[-1],"loss_changes":[8.543778E-7],"parents":[2147483647],"right_children":[-1],"split_conditions":[1.914361E-7],"split_indices":[0],"split_type":[0],"sum_hessian":[6.7E1],"tree_param":{"num_deleted":"0","num_feature":"6","num_nodes":"1","size_leaf_vector":"0"}},{"base_weights":[6.381203E-7],"categories":[],"categories_nodes":[],"categories_segments":[],"categories_sizes":[],"default_left":[0],"id":85,"left_children":[-1],"loss_changes":[8.543778E-7],"parents":[2147483647],"right_children":[-1],"split_conditions":[1.914361E-7],"split_indices":[0],"split_type":[0],"sum_hessian":[6.7E1],"tree_param":{"num_deleted":"0","num_feature":"6","num_nodes":"1","size_leaf_vector":"0"}},{"base_weights":[6.381203E-7],"categories":[],"categories_nodes":[],"categories_segments":[],"categories_sizes":[],"default_left":[0],"id":86,"left_children":[-1],"loss_changes":[8.543778E-7],"parents":[2147483647],"right_children":[-1],"split_conditions":[1.914361E-7],"split_indices":[0],"split_type":[0],"sum_hessian":[6.7E1],"tree_param":{"num_deleted":"0","num_feature":"6","num_nodes":"1","size_leaf_vector":"0"}},{"base_weights":[6.381203E-7],"categories":[],"categories_nodes":[],"categories_segments":[],"categories_sizes":[],"default_left":[0],"id":87,"left_children":[-1],"loss_changes":[8.543778E-7],"parents":[2147483647],"right_children":[-1],"split_conditions":[1.914361E-7],"split_indices":[0],"split_type":[0],"sum_hessian":[6.7E1],"tree_param":{"num_deleted":"0","num_feature":"6","num_nodes":"1","size_leaf_vector":"0"}},{"base_weights":[6.381203E-7],"categories":[],"categories_nodes":[],"categories_segments":[],"categories_sizes":[],"default_left":[0],"id":88,"left_children":[-1],"loss_changes":[8.543778E-7],"parents":[2147483647],"right_children":[-1],"split_conditions":[1.914361E-7],"split_indices":[0],"split_type":[0],"sum_hessian":[6.7E1],"tree_param":{"num_deleted":"0","num_feature":"6","num_nodes":"1","size_leaf_vector":"0"}},{"base_weights":[6.381203E-7],"categories":[],"categories_nodes":[],"categories_segments":[],"categories_sizes":[],"default_left":[0],"id":89,"left_children":[-1],"loss_changes":[8.543778E-7],"parents":[2147483647],"right_children":[-1],"split_conditions":[1.914361E-7],"split_indices":[0],"split_type":[0],"sum_hessian":[6.7E1],"tree_param":{"num_deleted":"0","num_feature":"6","num_nodes":"1","size_leaf_vector":"0"}},{"base_weights":[6.381203E-7],"categories":[],"categories_nodes":[],"categories_segments":[],"categories_sizes":[],"default_left":[0],"id":90,"left_children":[-1],"loss_changes":[8.543778E-7],"parents":[2147483647],"right_children":[-1],"split_conditions":[1.914361E-7],"split_indices":[0],"split_type":[0],"sum_hessian":[6.7E1],"tree_param":{"num_deleted":"0","num_feature":"6","num_nodes":"1","size_leaf_vector":"0"}},{"base_weights":[6.381203E-7],"categories":[],"categories_nodes":[],"categories_segments":[],"categories_sizes":[],"default_left":[0],"id":91,"left_children":[-1],"loss_changes":[8.543778E-7],"parents":[2147483647],"right_children":[-1],"split_conditions":[1.914361E-7],"split_indices":[0],"split_type":[0],"sum_hessian":[6.7E1],"tree_param":{"num_deleted":"0","num_feature":"6","num_nodes":"1","size_leaf_vector":"0"}},{"base_weights":[6.381203E-7],"categories":[],"categories_nodes":[],"categories_segments":[],"categories_sizes":[],"default_left":[0],"id":92,"left_children":[-1],"loss_changes":[8.543778E-7],"parents":[2147483647],"right_children":[-1],"split_conditions":[1.914361E-7],"split_indices":[0],"split_type":[0],"sum_hessian":[6.7E1],"tree_param":{"num_deleted":"0","num_feature":"6","num_nodes":"1","size_leaf_vector":"0"}},{"base_weights":[6.381203E-7],"categories":[],"categories_nodes":[],"categories_segments":[],"categories_sizes":[],"default_left":[0],"id":93,"left_children":[-1],"loss_changes":[8.543778E-7],"parents":[2147483647],"right_children":[-1],"split_conditions":[1.914361E-7],"split_indices":[0],"split_type":[0],"sum_hessian":[6.7E1],"tree_param":{"num_deleted":"0","num_feature":"6","num_nodes":"1","size_leaf_vector":"0"}},{"base_weights":[6.381203E-7],"categories":[],"categories_nodes":[],"categories_segments":[],"categories_sizes":[],"default_left":[0],"id":94,"left_children":[-1],"loss_changes":[8.543778E-7],"parents":[2147483647],"right_children":[-1],"split_conditions":[1.914361E-7],"split_indices":[0],"split_type":[0],"sum_hessian":[6.7E1],"tree_param":{"num_deleted":"0","num_feature":"6","num_nodes":"1","size_leaf_vector":"0"}},{"base_weights":[6.381203E-7],"categories":[],"categories_nodes":[],"categories_segments":[],"categories_sizes":[],"default_left":[0],"id":95,"left_children":[-1],"loss_changes":[8.543778E-7],"parents":[2147483647],"right_children":[-1],"split_conditions":[1.914361E-7],"split_indices":[0],"split_type":[0],"sum_hessian":[6.7E1],"tree_param":{"num_deleted":"0","num_feature":"6","num_nodes":"1","size_leaf_vector":"0"}},{"base_weights":[6.381203E-7],"categories":[],"categories_nodes":[],"categories_segments":[],"categories_sizes":[],"default_left":[0],"id":96,"left_children":[-1],"loss_changes":[8.543778E-7],"parents":[2147483647],"right_children":[-1],"split_conditions":[1.914361E-7],"split_indices":[0],"split_type":[0],"sum_hessian":[6.7E1],"tree_param":{"num_deleted":"0","num_feature":"6","num_nodes":"1","size_leaf_vector":"0"}},{"base_weights":[6.381203E-7],"categories":[],"categories_nodes":[],"categories_segments":[],"categories_sizes":[],"default_left":[0],"id":97,"left_children":[-1],"loss_changes":[8.543778E-7],"parents":[2147483647],"right_children":[-1],"split_conditions":[1.914361E-7],"split_indices":[0],"split_type":[0],"sum_hessian":[6.7E1],"tree_param":{"num_deleted":"0","num_feature":"6","num_nodes":"1","size_leaf_vector":"0"}},{"base_weights":[6.381203E-7],"categories":[],"categories_nodes":[],"categories_segments":[],"categories_sizes":[],"default_left":[0],"id":98,"left_children":[-1],"loss_changes":[8.543778E-7],"parents":[2147483647],"right_children":[-1],"split_conditions":[1.914361E-7],"split_indices":[0],"split_type":[0],"sum_hessian":[6.7E1],"tree_param":{"num_deleted":"0","num_feature":"6","num_nodes":"1","size_leaf_vector":"0"}},{"base_weights":[6.381203E-7],"categories":[],"categories_nodes":[],"categories_segments":[],"categories_sizes":[],"default_left":[0],"id":99,"left_children":[-1],"loss_changes":[8.543778E-7],"parents":[2147483647],"right_children":[-1],"split_conditions":[1.914361E-7],"split_indices":[0],"split_type":[0],"sum_hessian":[6.7E1],"tree_param":{"num_deleted":"0","num_feature":"6","num_nodes":"1","size_leaf_vector":"0"}}]},"name":"gbtree"},"learner_model_param":{"base_score":"5E-1","boost_from_average":"1","num_class":"0","num_feature":"6","num_target":"1"},"objective":{"name":"reg:squarederror","reg_loss_param":{"scale_pos_weight":"1"}}},"version":[1,7,3]}